107 100
机器学习 -0.003913348 0.00079189293 0.00041506972 -0.00085633266 0.0040299757 -0.004970909 -0.0039041366 -0.0020065354 -0.0047731423 -0.0012959677 0.0022132588 -0.0033501794 0.0009829145 -0.0006555975 -0.0021081353 -0.00147882 -0.0034018033 0.0045141773 0.00492265 -0.0025981695 0.0020454554 -0.0012620296 0.0020698784 -0.00035432234 -0.0014244389 -0.0028416999 -0.0029507212 0.0014823703 -0.0012499364 0.0017991359 0.0026772253 0.00049588707 0.0043602106 -0.003787792 0.0040775375 -0.0046131504 0.001623019 0.0039022772 0.00052295177 0.0012170112 0.0015051102 0.0004955654 0.0041042534 -0.0010952479 0.0001088095 -0.004047659 -0.0032044526 0.0027034674 -0.0049631516 0.0016464484 -0.0046693683 0.0046851863 0.00047816077 0.003584552 0.0014364127 -0.0023423538 -0.0020400323 -0.0040615876 0.0035934693 0.00048843055 0.004632632 0.0020799905 0.0046344637 0.0014304684 0.004690461 0.0024383292 0.0009253565 0.002628043 0.0011567071 -0.0037930803 -0.003116406 -0.00090897974 0.003934216 0.0012024291 0.0030718795 0.0047060354 -0.0016554634 0.0014761135 -0.004134878 0.00071259507 -0.0038532913 -0.0010205329 0.0030310114 -0.0024441099 0.0039637336 0.0014185703 -0.0016017718 -0.004265581 -0.0025473738 -0.001029699 0.0021159276 0.004527984 0.0025584958 -0.0045741387 -0.0012568375 1.6158051e-06 0.00011863654 -2.339808e-06 6.7421155e-05 0.0005075196
学习 -0.002612404 -0.0035251311 0.004107711 0.0027196496 -0.0042241407 -0.0046064593 0.004677558 -0.0049955994 0.001693212 0.004641499 0.0034679375 0.0037053465 -0.0001914582 -0.004171586 0.00096010126 0.0017088038 0.0025449344 -0.004801666 -0.004473789 -0.0013267924 0.0020131238 -0.0043836795 -0.0009776918 0.0042409007 -0.0032564737 -0.0005214318 -0.0006701059 -0.0017061584 0.0034762928 0.0026336876 0.00019338327 -0.003059459 0.0017732908 -0.00053117797 -0.0010763045 0.0024220003 0.0011444957 0.0044760583 0.0045341337 0.0049822824 -0.0045183403 -6.223921e-05 -0.004346892 -0.0016688043 -0.0034952755 -0.0046492605 0.00022275273 0.00053906057 -0.0034331342 -0.0014260332 -0.0016595199 -3.8817536e-05 -0.004353055 0.001447897 -0.0037111628 -0.0042484473 0.0038156505 -0.004650815 -0.003638285 -0.0007151752 -0.004123286 -0.0014393242 0.0009926851 0.0028101674 -0.00010386578 0.0040488425 -0.004983832 0.001995273 0.0007335253 -0.002467628 0.002332594 -4.252418e-05 -0.00025578943 0.0018679348 -0.0028748026 0.0026476914 0.0019129388 -0.0036108578 0.0047010155 0.0013717571 0.002546357 0.0041072583 -0.002114501 -0.0010122975 0.0033607772 0.0024438803 0.0033656713 0.0015372024 -0.00031031747 0.0030535408 0.00015492715 -0.0026923039 0.0045237127 0.0043997583 0.00088576064 0.0042162347 0.002919358 -0.001460982 -0.00072585494 0.00054901245
中 -0.00063408184 0.004459185 -0.0038196475 0.0019130588 -0.0004413724 -0.002361897 -0.0013147893 -0.0013300043 0.0039770263 -0.0040218006 -0.003177627 0.0032288427 -0.0011059201 0.00040150183 -0.0031418551 0.0020297682 -0.0028175982 0.004177124 0.0030619998 -0.0048276205 -0.0044092517 -0.003985799 -0.0008591474 -0.000734662 -0.0017351444 -0.00478591 0.001233965 0.0008942222 0.0035395687 0.0016146337 -0.004463498 -0.002926519 -0.001855801 -0.001572834 -0.0018655538 0.002088413 0.003814824 0.0044879983 0.003977722 -0.002791544 -0.0047585047 0.003080998 -0.0015251451 0.00057257345 0.0014197718 -0.0036580255 -0.0024205053 0.00033944196 0.0010578232 -0.00052171963 -0.0010910555 0.00038522575 -0.004738848 0.001028994 -0.0021793323 -0.0039863596 -0.004302909 0.001910992 -0.001461502 0.002252035 -0.0024154691 -0.0006202935 0.0033013304 -0.0030832177 5.6989116e-05 0.0033797298 -0.00253734 0.0028705874 2.9471787e-06 -0.001508596 -0.00061932846 -0.0030838624 0.00018807886 -0.0022689118 0.0041484274 -0.0042709545 -0.002324615 -0.0019694113 -4.8788937e-05 0.0004672153 0.0017322439 -0.003731302 -0.004105325 -0.0031282553 0.0010581302 0.00041662212 0.0029993518 0.0010225453 0.00414155 0.0006354375 -0.0024009827 0.00446894 9.5359945e-05 1.177542e-05 0.0006051083 -0.0028013738 -0.00024500632 -0.0027692812 0.0027334832 0.004667005
算法 0.0032387911 0.0036450226 0.0008135131 -0.0020765667 -0.0021138263 -0.0037953167 0.0004933321 0.0022805044 0.0014537579 0.0012797298 0.0024875707 -0.00047170336 -0.0015951676 -0.0010616704 -0.00043530297 -0.0018129231 -0.004792892 0.0035610516 0.0035505125 -0.00019132753 -0.0028239263 -0.0023998593 -0.003988949 -0.00029725127 0.0018120938 -0.002048589 0.0046172985 -0.002692456 0.003428725 -0.00405756 -0.0013725007 0.0025681092 -0.0015647572 -0.0018185503 -0.004285232 -0.0014282028 -0.0028172242 0.0035386595 0.00039802518 0.0027611665 0.0010453137 -0.0032207738 0.00071058597 -0.0028564571 -0.003568017 -0.0018552318 4.2439937e-05 -0.0032344712 0.0045574936 0.0035736633 0.004046701 0.0005713922 0.00055987627 0.0038411624 0.00019911626 -0.0046086274 -0.00046668295 0.0015356658 -0.004579944 0.0019848654 0.0019562542 0.004436467 -0.0021228436 -0.0025042675 0.00036361042 0.0020078057 -0.0041244808 0.0033193964 -0.004815424 0.00046290952 0.0026375854 -0.0038922206 -0.0046665343 -0.0047732885 0.0022525662 -0.0028783274 0.0036271436 -0.0006736482 -0.0044197473 -0.004411407 -0.0042602797 -0.0042092553 0.0003436546 -0.0021190473 0.0041348482 0.004251398 -0.002284742 0.0035076411 0.0026281462 -0.0014252474 -0.0045070774 0.0011229115 -0.003663334 -0.0023839313 0.0010528107 -0.0017957145 0.0041803904 0.00030114522 0.0019651803 0.00390841
数据 0.0008877337 0.0004096181 -0.0034913872 0.0014236105 -0.0008004875 -0.00037567434 0.0009709402 0.004626469 0.0014835917 -0.003019439 -0.0016260745 0.0021815563 0.0028330013 0.00204944 0.00031234513 -0.003043748 0.0015093957 0.0024227677 -0.0012621444 -0.0034056571 0.0047584404 0.0032064696 -0.0010913314 0.00437038 0.004694089 -0.002301118 0.0033835366 0.0028020681 -0.004200987 0.004475124 -0.0015909928 -0.0014860475 -0.0014497096 9.34399e-05 -0.0024397194 -0.0036364598 -0.00081224926 0.0011882648 8.8737084e-05 -0.0020276445 0.0019735475 -0.003736239 -0.004945492 0.0018747337 -0.0018750117 -0.004044988 -0.0039001186 -0.0010185526 -0.003547839 0.0038829835 -0.0012624356 -0.0007727022 0.0035468042 0.0030707105 0.0033856938 -0.0016123705 -0.0029028398 0.0033191915 0.0010677321 -0.003152047 -0.0032309182 0.0033937332 -0.001982221 -0.0021953946 0.0027001759 0.0012383842 -0.004172757 0.004280268 -0.00060860906 0.0010258071 0.0015953697 0.0012344412 -0.0011432109 0.0042514508 0.0021061543 -0.00037491496 0.0007506413 -0.003101521 -4.299214e-05 0.003012067 -0.003301867 -0.0033658107 0.004201556 0.001966493 -0.0048989635 0.00032107384 0.0025658277 -0.0011706031 -0.0015312269 -0.004275257 -0.0016067986 0.0015476902 0.0016136299 0.002335009 0.0020105334 0.003373341 -0.0012191583 0.0042446977 0.001464777 0.0046505365
人工智能 -0.00022335273 0.0035267633 0.00255945 0.0012827989 -0.002592495 0.0023592918 0.0032202953 -4.0055904e-05 -0.004550508 0.0013454178 0.0017821807 -0.0007311677 0.0044174423 0.00061277143 0.0044596284 -0.001269937 0.0030102187 -0.0022284333 0.0028308306 0.0008727822 0.0048526665 0.00014488492 -0.0016641482 -0.0010325678 0.0038418404 0.0017077988 -0.002880623 0.0028900232 0.0009040644 -0.0048289415 -0.004967068 -0.0012021249 0.0003933171 0.0036719062 0.004263703 0.002627749 0.0037285287 -0.0047857147 0.0024506883 -0.0044198497 0.0025706682 -0.0021112945 -0.0014538813 0.0046984446 -0.0033956096 -0.00041971804 -0.0014716609 -0.00064362976 -0.0043103765 0.00396226 0.0019838964 0.0049341987 -0.00048710316 0.001900039 -0.0019469551 -0.0029518914 -0.0019919341 -0.0026953206 0.001351244 -0.0026011881 -0.0032431092 -0.0025447218 -0.0044059195 0.002156165 0.003614653 -0.0021467735 0.002725455 -0.0029393388 0.0026345816 0.0004819689 0.0009625529 0.001274818 0.0036930211 0.0018440607 -0.00026289956 -1.6885419e-05 0.0033923718 0.0034442088 0.0014953014 0.0039831335 -0.0005548064 -0.0028879044 -0.0034150823 0.0018278818 -0.0016551847 -0.00084953173 -0.00015825417 -0.0019981721 -0.0037452602 0.0047313552 0.002007114 0.0030624506 -0.0047114324 5.742526e-05 0.0017174551 0.0012373724 0.0022718706 -0.00490305 -0.0042364914 -0.0046328157
重点 -0.00041952758 -0.0015306936 0.0041442653 0.0016081805 0.0037013146 -0.0012155406 0.0028860092 0.00071386254 0.0007287098 0.00208623 0.0036933338 7.67067e-05 -0.0016710596 0.0042286804 -0.0011716204 -0.0025535664 -0.0013498525 -0.0028369157 0.0031584143 0.0039075245 0.0029722657 -0.0035035964 -0.0025083886 0.00034558694 -0.0024140044 -0.00036168448 -0.004204623 0.002818466 0.0048919986 0.004760379 0.0039623105 -0.0026701216 -0.0037479687 0.0029478862 -0.00018769657 0.0028050456 0.0022907553 0.0013223655 0.00017013027 -0.0015135509 0.004185039 -0.0005220307 0.0012784562 -0.0027436994 0.0049578915 -0.00045907797 -0.004072741 0.0024424645 0.0024159965 -0.0021096792 0.0005387164 -0.00070779264 -0.0014827279 -0.0033761603 -0.004619573 0.0040002223 0.0034670313 -0.00028886262 -0.0014044723 0.0046973526 0.0015549372 -0.004466464 0.0041064997 -0.0014505361 0.0020897062 -0.0010683553 0.0017607259 0.004833072 -0.0046546888 -0.003254186 -0.00044339412 -0.0044928957 0.0042255893 0.004660873 -0.00062886317 0.00081061973 -0.0018552563 -0.0022503673 -0.0037022003 0.00324922 0.00018970082 0.0009360828 0.0032614018 0.001490872 -0.00097631046 -0.0043255743 -0.0028823554 -0.0002269984 -0.0030279506 0.0034997845 -0.004655362 -0.0013616489 0.0015913232 0.00015509468 -0.0030184877 0.0030110432 0.002435436 0.0031502256 -0.0022752217 -0.0036439418
分析 -0.00048369064 0.0038876268 0.00012416682 -0.004256729 0.0016420219 -0.0015644198 0.0044532036 -4.0697287e-05 -0.0032629827 0.00438153 0.0047116587 -0.004112289 -0.0022820593 -0.0018827097 -0.0025848967 -0.0029859499 0.0020663287 0.0015344956 -0.0012759722 0.004722205 -0.0019768623 0.004609265 0.0043064426 -0.00015598796 0.0037202018 -0.0045988373 0.0049652625 -0.004345332 0.00077814405 -0.0009794958 -0.0006872089 -0.0028257049 -0.0017533357 0.0029859594 0.0042560394 -0.00090329756 0.0019431895 -0.0022708096 0.0034834773 0.003742112 0.002319157 0.0009023825 0.0028017797 -0.0035891046 0.0016516935 -0.004002262 0.004664537 0.0028492275 0.00037322752 0.0012697179 0.0014028201 0.0031821232 -0.00063159806 0.0023733848 0.002725047 -0.0029264924 0.003759135 0.004296482 -0.0023024192 0.0032225975 -0.0015372089 -0.0028286995 -0.00094609463 -0.0021250811 0.0009394111 0.0027711175 -0.003362822 -0.0035774796 -0.0042080493 -0.0006867717 0.0016424848 0.004486645 -0.0042971517 0.0011042038 0.0043055667 -0.0037746707 -0.004340812 0.0019582422 -0.00095851265 0.00018106536 -0.004694542 0.0017639265 -0.001994633 -0.0039403066 0.0021781758 -0.001508739 0.00015386209 0.0010597018 -0.003062461 -0.0039408314 -0.00260838 -0.0040513687 0.0005468287 0.0044475296 0.00443907 -0.001984248 0.00019511383 -0.0031228832 -0.0034867106 -0.0022619609
深度学习 0.0036573322 -0.0045035556 0.0038429492 0.0040830816 0.000492747 0.0043858937 -0.0015509077 -0.003221017 -0.004669416 -0.0048033423 -0.00027880727 -0.003935013 0.0040555326 0.002436382 -0.002397574 -0.0049622026 -0.0045111096 -0.0044144294 -0.0024952118 -0.00026021665 0.0047455463 -0.0017175712 -0.0024319533 0.001199425 -0.0014246037 0.0026587741 -0.0032847833 0.002909094 -0.00033578707 0.002726104 0.0032378896 0.00044746677 -1.0501619e-05 0.0009908314 0.0006905247 0.0038726483 0.00011045304 0.0015604709 0.0001176668 0.0043553077 -0.000172324 -0.002731143 -0.0021361287 -0.0048032417 -0.0037303215 9.7586184e-05 -0.004695919 0.003372037 -0.00049200206 0.0012526182 0.0031014716 0.0026471193 0.004891795 -0.0036187014 0.0030159848 -0.0039281202 -0.004477143 -0.00079639506 0.0035573326 -0.004090161 0.0034057554 -0.0024406884 0.0018239983 -0.0033167969 0.0006909569 -0.0012595361 0.002426124 0.004600951 -0.003713757 0.004234702 -0.002839783 0.0046751513 0.0046574404 0.0025821251 -0.004527075 -0.0030851697 2.4044048e-05 -0.0004275602 -0.0015337835 -0.00060821907 -0.0013623129 0.003627663 0.0027075366 0.0028079625 6.0286213e-05 -0.0040979423 -0.00032501767 0.0010373923 0.0043467185 0.0023989507 0.0047366745 0.0014276671 -0.0015059079 0.004425402 -0.0019656217 0.004087486 -0.0026529573 -0.00064562814 0.001101688 0.004559042
表征 -0.004160661 0.0003176102 -3.818242e-05 -0.00076965685 0.0043607904 -0.0032584483 -0.004746729 -0.001972527 -0.002911354 -0.002386457 0.0028881112 -0.0032685602 -0.0032527007 0.0008208864 -0.0005070412 -0.004056524 -0.0044725263 0.0010302498 -0.0036783663 0.0025211554 0.0044510085 0.0032400666 0.0039927554 -0.0025140955 -0.0045948634 -0.0040444485 0.003616527 0.00060457934 -0.0044375104 -0.0028941103 -0.0005065332 -0.0001559921 0.0017975693 0.00092449685 -0.0038146472 0.0045926673 0.003637058 0.0031736756 -0.0007420526 -0.0034900773 0.00022039434 0.002390809 0.00020986999 0.0019298067 -0.003907336 -0.0012140841 -0.003277153 -0.00486872 -0.000899793 0.002288491 0.0010881132 -0.0023691626 0.001656514 -0.00073357206 0.004923852 0.0020571214 -0.0019308899 -0.002799133 -0.003518455 -0.0010742863 -0.0005036993 0.002322732 -0.0039203297 0.004120061 -0.000637004 0.002210172 -0.0026282673 -0.004276399 -0.0011634859 0.0001381882 -0.000627981 -0.00392302 -0.002401949 0.00044304467 -0.0012371145 0.0037604885 -0.0043397434 0.0048969644 0.0031677666 -0.0037550735 0.0047479686 0.0047096484 -0.004527816 0.0011765423 -0.001818925 -0.0028518944 -0.004625383 -0.0028330141 -0.0016610405 0.000103557315 -0.0036724755 -0.0015154913 0.0016580392 -0.0029158152 0.0030222733 0.002021063 0.0021718985 -0.0023162228 -0.0013122802 -0.00066673616
方法 0.00408984 -0.001226593 -0.0011442134 0.002270568 0.00017277707 -0.0032642544 -0.0003706084 -0.004436893 0.00044553273 -0.0042079175 -0.0005443996 -0.004400391 0.0044821645 0.004455944 0.0008144846 0.0020670735 -0.0026757503 0.0049366327 -0.0015159852 -0.0036170527 -0.0041896543 -0.0033846595 0.0017327577 -0.0015903591 0.0020647503 -0.003818982 -0.0001954697 0.004753902 0.00095963 -0.0019513929 -0.004131658 0.0027076658 -0.0013561887 0.00045257833 0.0026930815 0.003014536 -0.001043796 0.00059180136 -0.0037303248 -0.002387469 -0.0035613505 -0.0010699471 0.0015759633 0.0047281063 -0.00073589484 0.0042369245 -0.0011853479 0.003710433 -0.0048572775 0.001084737 -0.0040494287 -0.00035221485 0.003583892 -0.00043164313 0.0038586708 -0.0038253935 0.0037637968 0.0025864406 -0.0007324449 0.0013438086 0.0035906665 -0.00040268974 1.45615695e-05 -0.0037761198 0.004727061 -0.003552103 -0.0016520406 0.0015650757 -0.00029998412 0.0024348483 0.0049493057 0.0031068004 -0.0034220319 -0.00043390814 -0.0033593215 -0.0022626545 0.0010478057 -0.0034490675 0.0030800097 0.0015097184 -0.0010559567 0.0012663349 0.0038996756 0.004453532 -0.00063430663 0.004645452 -0.0013368287 0.0016114039 -0.0037884852 0.002156031 -0.0032617238 8.042731e-05 0.003960346 0.00015975274 -0.000379082 0.0048666876 -0.0022776294 -0.004934655 -0.003025878 0.0028515828
分支 -0.0027789364 -0.0030778619 -0.0046139783 -0.0028148866 0.0004874141 -0.003108197 0.0028171819 -0.003999376 -0.00031737116 0.0017837472 -0.0018120464 0.0019097171 0.0023313467 -0.0049435133 -0.0031321924 -0.0019396883 0.0028508066 -0.0043100687 -0.0032717015 -0.0011032117 -0.0037421226 0.002037085 0.004630356 0.003849983 -0.0035575808 -0.00059294596 -0.0024795877 0.0008020305 -0.00035017598 -0.00062185794 0.0043899873 0.0007166375 0.00083371584 0.00041310635 -0.0016044311 -0.0038063389 -0.003501652 0.0045548193 -0.003569876 -0.00045175847 0.0022071851 0.0025935308 0.0018173306 0.0016361091 -0.0022532237 -0.0005954631 -0.0041735233 -0.0011648881 0.0020790321 -0.0047777966 0.003580717 -0.00075944536 -0.0010740245 -0.00450143 -0.0014940655 -0.0012695153 -0.00311445 0.000636311 -0.0035093788 0.0010012987 -0.0030477692 0.002090246 -0.0030889048 0.0046659918 -0.0010471692 0.0005262857 -0.004531089 -0.0045827306 0.0039831107 -0.0011307125 -0.0017030197 -0.0017407988 -0.0025058321 -0.004200961 0.0010825641 -0.0019285713 0.0015260386 -0.004756893 -0.0028141232 -0.0019843844 -0.00040513187 -0.0022302472 0.00032756972 0.0035661676 -0.0012759661 -0.0038010133 0.004853534 0.00066087657 -0.004093517 -0.001167592 -0.0032299962 0.0006310282 0.003126253 0.002365156 0.0025271033 0.0027067638 -0.0040127006 0.004244426 0.004733483 -0.0022362126
理论 0.0018486101 0.0019496329 0.0035310795 -0.004585367 0.0022436327 0.0005372278 0.0015694286 0.004345121 -0.0023238196 -0.002460324 -0.0024940046 0.00061659905 -0.0041895155 0.0031221358 0.004716021 0.0014353032 0.0039466033 0.0039024313 -0.0024678672 -0.004236622 0.00078188494 -0.0037333004 0.004099149 -0.0021633958 0.0016501626 -0.00012617686 0.0035470584 -0.0033396105 0.0036677269 -0.0036754515 -0.0031198487 0.0036406417 -0.0010760698 -0.0013694473 -0.0020822352 0.004951997 -0.00024171207 0.0035277547 -0.0014645318 0.0049737007 0.0027104174 0.0044811126 0.0041019865 0.0013566732 0.0035257502 -0.004425819 -0.002027103 0.002416234 -0.0007563343 0.0040537654 -0.00071198656 0.0012112196 0.0023063892 0.0040937643 -0.0020569698 -0.004542504 -0.0011744441 0.0044967933 -0.0026308692 -0.0041129915 -0.0015131127 -0.00056705525 -0.0005082938 -0.0010705745 -0.0017196819 0.0036674074 0.004726087 0.0036703895 -0.0016195475 0.003900846 -0.003406203 -0.0016023419 0.0027085328 -0.0024134456 0.00061451003 0.002669626 -0.00049440813 0.003679629 0.0018365216 -0.004612998 0.00046578213 -0.0010119946 0.0011991618 0.004744899 0.004607618 0.0039476166 -0.00073197443 -0.0009047093 0.004625255 -0.0028362826 0.0019620599 -0.003372256 0.0009857989 -0.0019759752 0.00446472 -0.0014882071 0.0023450744 -0.0018463576 -0.0024347105 0.004670683
自动 0.0006339013 0.00029734103 0.003501219 -0.0031316918 -0.00044816005 -0.0030291548 -0.0048233815 -0.001777683 0.0027714435 -0.0012056497 0.0008756063 -0.0010728893 0.003440219 -0.0027506251 -0.0012715356 -0.004534642 0.0012384627 0.0012790543 -0.0032060347 0.000842188 -0.0025774175 -0.0010290064 -0.0011284081 -0.00054124347 -0.0030960697 -0.00046969662 -0.002551339 -1.5354408e-05 0.0020292934 0.0032377718 0.0025008388 0.0010101577 0.004970764 0.004066357 -0.0023946718 -0.0002931982 -0.003717792 0.00024509177 -0.0010314569 -0.0047373055 -0.003357413 0.0015349908 0.001207164 -0.003954099 -0.0027314918 0.0047618775 0.002512278 0.0025517393 -0.0028446093 -0.0021595557 0.0035228084 0.000492176 -0.0034005102 -0.002609509 -0.003386241 0.0019229061 0.0037574694 0.004506739 -0.001937783 0.0015377295 -0.0048043514 -0.002817324 -0.00093884533 0.0012432869 -0.002652583 0.0031465865 -0.0026271406 -0.004938374 -0.0013254575 -0.0042714234 0.0041644997 0.0033696925 -0.0035708095 0.003275148 -0.0016892673 -0.0013977432 -0.002761102 -0.0021465204 0.00412387 0.0014023847 -0.0022494048 0.0015311893 -0.003898638 -0.001308947 0.00091912894 0.0043292814 -0.0041070404 7.5770826e-05 0.0014828916 -0.00221414 -0.004198016 0.0034981247 0.0016319905 -0.004410532 0.0024242161 -0.0031844748 -0.00338551 -0.00484037 0.0034914976 0.0014301316
规律 0.0022932785 -0.0026985952 -0.0012203852 3.883353e-05 -0.0012128176 0.0015425808 -0.0038220114 0.0032260471 0.0012082125 0.0025145805 -0.004192655 -0.003196695 0.0011668062 -0.0012710122 -0.0044952226 0.0011417923 0.0027094374 0.0043722163 0.0018866254 0.0032163973 0.003092852 -0.0016815161 0.0036248178 0.003542856 -0.0028061613 0.0042018415 -0.000614098 0.0035400873 0.003438049 -0.0015111992 -0.001443974 0.0027531707 -0.0030774106 -0.00071042846 -0.0031574862 -0.0021031576 -0.0008856724 -0.0030776095 0.002918022 0.004782271 0.00074685743 0.0014415463 0.0005096788 -0.002116378 -0.0049403054 0.000399831 0.0049654646 -0.004481631 0.003975958 0.0014049785 -0.0033044724 0.0012682485 -0.002300344 -0.00497872 0.0041849934 -0.0020485907 0.0024170496 -0.0038280434 0.0011480753 -0.0034261358 -0.0024026793 -0.0026052285 -0.00020896806 -0.0032467167 -0.0018834862 -0.0009875076 -0.004943702 0.0018053988 0.00406238 0.0033342382 0.0034729517 -0.0018020732 0.00021403615 0.0008595591 0.0036266267 0.0045156823 -0.0022755375 -0.0035853926 -0.00018435782 0.0011890883 -0.00067953125 -0.00141941 0.00275444 -0.004116599 0.0035928003 -0.004467089 0.00017921488 -0.0043709916 -0.0009746306 -0.00011494313 -0.004826253 -0.0020541202 -0.0017468174 0.0019663612 0.0010979733 -0.0045671016 0.003830815 -0.0012599122 0.0048608975 0.00036849297
一种 -0.001524466 0.004769405 -0.0024417771 -0.00421094 -0.004948302 -7.301271e-05 -0.0047468645 0.0039221416 0.00097580376 0.0046390407 0.0026313448 -0.0040443228 -0.0022205473 0.0039607324 -0.0002519483 0.0013905768 0.0010175476 0.00122597 0.0017809175 0.00437723 -0.0008251721 -0.0016169397 0.002402739 -0.003506847 0.0024122414 0.0023374453 0.0024454182 -0.0034319188 0.00047080286 0.004559541 -0.0003763029 0.00329813 -0.003028958 0.001799819 0.0022243627 0.0043460405 -0.0018432918 -0.0032246986 0.0026220689 -0.0039653243 -0.00015861951 -0.00260022 0.0024380917 0.004503233 -0.0001924624 0.001478501 0.0020481998 0.0004500955 0.00041232703 -0.004128531 -0.0013522449 -0.0030514316 0.0024199535 -0.00337043 -0.004212774 -0.0011073838 -0.004430044 -0.0018612049 -0.0027945864 0.0025326097 0.0017608518 -0.0043138377 0.0037186884 -0.0039863545 -9.550811e-05 -0.0024926097 -0.0045589516 -0.0047722906 0.0029113907 -0.0006149112 -0.004684558 0.002587649 0.0034658553 0.0005280392 -0.003974205 -0.00023841564 0.000885415 -0.00054610544 -0.0038676406 -0.0023261108 -0.0022113987 -0.0024240094 -0.001063094 0.0019355221 0.004938133 -0.0044151586 -0.0033537557 0.001482755 0.003939397 0.001777741 -0.0026553585 -0.0016891625 -0.0041015167 -0.003065617 -0.0017914681 -0.0044348673 0.0044965954 0.0017423512 -0.000918048 -0.0032494618
值 0.004071687 0.00074862415 -0.0024027426 -0.0005709986 -0.0022460786 -0.00056471635 -0.0038273428 0.0042726947 -0.0011645335 -0.00070098735 0.004021502 0.0039303596 0.004769748 0.0009950859 0.00075738126 0.003064639 0.002953171 -0.0019422487 -0.0046995473 -0.0012264395 0.0035049238 -0.0028372197 -0.0049729003 0.0006691879 -0.0026542146 -0.0006529048 -0.0022153046 -0.0005123457 -0.0048876693 0.0029270553 -0.0020974358 -0.004273718 0.0019861502 0.005002203 0.00048197247 0.0027634478 -0.00019710953 0.002333215 -0.0038580615 0.0045898743 -0.0020718218 -0.0007413919 -0.0012116971 -0.0026481948 0.0024016092 0.0021343208 0.00055411935 0.0048743114 -0.0009036451 -0.00041370813 -0.00448612 0.0011247054 -0.00021886907 9.854391e-05 -0.002073328 0.0012099333 0.0025108831 -0.0018285355 0.003142867 0.0022339162 -0.0044651795 0.0049253763 -0.0038810717 -0.00073373236 -0.0036819535 0.0016979236 -0.0038976057 0.0014430233 -0.003792406 -0.0031423178 0.0034420362 -0.0036843014 0.00016907632 0.0017133346 0.0027098309 -0.0021444086 0.0018309125 0.0026475252 0.0016388898 -0.00023165734 -0.0040557007 0.00088067906 -0.0021446769 0.0012764605 -0.003859374 0.0033091425 0.00051399413 -0.0026905267 -0.004268475 -0.002443479 -0.0034743608 0.0035496186 -0.0015797567 4.23164e-05 -0.0003759921 -0.0030399966 -0.0019966783 0.0024888208 0.001692691 -0.0006677926
监督 0.0044676405 -0.0035673485 0.004032367 -0.0046951426 0.0038933302 -0.00306289 -0.0014464093 0.00086225953 0.0044962647 -0.0012314781 -0.0030566554 0.0034707123 0.003726172 -0.0012610321 -0.0047857026 -0.0040726867 0.0044072294 0.0002520291 -0.004662581 0.001461655 0.0014710656 -0.0013610392 0.0016857358 -0.0017830533 -0.0029782548 -0.0032195698 -0.00024751583 -0.0025307143 0.0013412209 -0.0023189539 -0.0020838112 -0.0024797218 -0.004118539 -0.0015612955 -0.0015870024 0.0016822659 -0.0004227759 0.000674026 0.0022730061 0.0014474845 0.0013071258 -0.00027537043 -0.001359993 0.0012807256 -0.001532626 0.0025940482 0.0017616344 -0.0023293132 0.003319932 -0.0008844148 -0.0024816613 0.0006058816 -0.0026605413 -0.0012795499 -0.00025258693 -0.0019665363 0.0013091739 0.0038939444 -0.0019232056 0.00015773329 0.0028533894 -0.00092692376 0.00018382716 -0.0035628127 0.002074812 -0.0039692186 0.0024981333 -0.0044424627 0.0014853597 -0.0033553375 -0.0006844818 -0.004942384 0.0046929927 -0.004252148 -0.0014810264 -0.00486051 0.0033844642 0.002603366 -0.0039917054 0.0025207635 -0.0032582306 -0.0019619968 -0.0029253447 0.0030061374 -0.0013819677 0.00076563965 -0.003226956 0.0031371773 0.00013088227 -0.0004784596 -0.00024201594 -0.003339164 0.00011369966 0.0028649615 -0.0036335664 -0.001990267 -0.0033100524 -0.00092210225 0.0031704288 -0.00067515543
式 0.0016222973 0.00074974034 -0.0032361904 -0.0010778497 -1.2101487e-05 -0.003410256 -0.00052508595 0.00015607878 -0.00024667894 -0.0038096856 -0.0040454566 0.0017148085 -0.003800979 0.004922493 0.0028880117 -0.0033913627 -0.00018860593 -0.0029803237 0.0045299856 0.0044247992 -0.0011882939 0.0023691235 -0.0039336737 0.0035246755 -0.0023745203 -0.0022258747 0.00063541613 -0.0022132602 0.0015772269 0.0032713974 -0.0021491686 -0.0018233419 -0.00031475397 0.0006413576 -0.0021564444 -0.00013077969 -0.001282329 0.00047977557 -0.0028796413 -0.0014118653 -0.0038593032 -0.0037872538 -0.003563242 0.003737893 -0.004127881 0.0030160826 -0.0045461003 -0.0039392905 -0.0031189248 -0.004140099 0.0032727164 0.0031259735 0.004386327 -0.00069086405 -0.002067502 -0.0040172455 0.003003598 -0.003006368 -0.0041117966 -0.000611792 0.0013236552 -0.0019257248 0.002383336 0.004467639 0.0033072298 -0.001802807 -0.001029745 -0.0038173227 0.0034223394 0.0015199708 -0.0034651437 -0.0010246316 0.0031308688 -0.003977291 -0.0029885964 0.0045762197 -0.0029344626 -0.0013379805 -0.0047068624 -0.003705699 0.001164404 -0.0014550003 -0.0009093366 0.00020606518 0.002702245 -0.0031030732 -0.0037393677 -0.00027524013 -6.633677e-05 -0.0031543989 0.004933565 0.0005847564 0.0011627029 -0.0044874693 -0.0032910279 0.004741325 -0.004095236 0.0013603427 -0.0011093206 0.0026845739
特征 -0.0015495986 -0.0038391526 -0.0045809895 -0.0041690473 -0.002417273 0.0016919831 0.0005828831 0.004389011 0.0029346456 -0.0029217517 0.0022007239 -0.0036881687 0.0049706586 -0.0029031474 -0.0029279306 -0.0023091931 -0.0006482506 -0.003618654 0.00082949264 0.004882243 -0.0026555606 0.0044802665 0.0030713426 -0.00020927479 0.0031415462 -0.0029725886 -0.0019142777 0.0034723023 -0.00448349 0.004849867 0.0015711638 -0.0015024492 -0.0020489458 0.00023127798 -0.0048492327 0.0028875165 0.0032321727 0.00024302037 0.004642936 -0.0043127756 -0.0012419731 -0.0039102263 -0.0046060784 -0.004985588 -0.0026825103 -0.0028716195 -0.0013222243 0.0011310476 -0.0024344958 -0.0013258804 0.004712286 0.004902262 -0.0045538167 -0.0025013788 -0.0020549458 0.004753408 0.00040007435 -0.0043515433 -0.0020566916 -0.0010163635 -0.0013046635 0.0035758659 -0.0019787764 -0.004371139 -7.078597e-05 -0.0046315566 0.0047776364 0.0003670826 0.0021632307 -0.0032435567 -0.0015564936 -0.0022441968 -0.004646494 -0.004885447 -0.0009674735 -0.00257568 -0.0048382296 -0.0012686983 -0.0038361463 0.0013855279 -0.001114291 -0.0016058561 -0.004560773 -0.0025958307 -0.0003019075 0.0049107047 0.0019451185 0.0045281863 0.0006514266 -0.0017123277 0.002312856 -0.0047962707 0.0032283245 0.00413268 -0.0018215944 0.0037938259 0.0010878295 -0.001427542 -0.0010580583 -0.00238432
更好 -0.0043783807 -0.0013821145 0.004178461 0.00070374686 0.0039505824 0.0035312094 -0.0022841778 -0.003577387 0.004800312 0.003470169 0.002684444 0.0049276226 0.0035423497 -0.001324307 -4.588917e-05 -0.0009550225 -0.0021937485 -0.0048529017 0.0048625735 0.0021487838 0.0018055486 0.002092545 0.0024226445 -0.0034473187 0.0010924021 -0.004865372 -0.0037711924 0.0022614494 0.0033177643 0.0018048286 -0.0012768871 0.001010946 0.0044916873 -0.0011640835 -0.0046245884 -0.0005223206 0.0006570194 0.001726856 -0.0047062417 0.00062949787 0.0036367537 0.0035228177 -0.0044217543 0.0023723408 0.0012158088 0.0019198694 -0.0031859225 -0.0008120551 0.0019145863 0.0046309098 -0.0028800317 -0.004294262 0.004989707 0.004750254 -0.003717141 0.0021428647 -0.003802362 0.004444739 0.00075010915 -0.0004987522 -0.0049454826 0.0034214188 0.004553009 0.00053451286 0.0025620612 -0.0033585 -0.002659155 -0.0010701169 0.0040465384 -0.0010860289 -0.0035707797 -0.0017451236 -0.0030383265 0.003823051 -0.0010597494 -0.00016850606 0.0013259948 -0.00036796078 -0.0012002353 -0.0011632626 -0.0038390923 -0.0005627127 0.0040912665 0.0009400955 0.0032877403 -0.0046643973 -0.003347697 0.001900103 0.0046367194 0.0023112637 0.00040818198 -0.00045440084 0.0033107398 -0.0029192895 0.0048665255 0.0037485322 0.0026719517 0.0045461003 -0.0018360247 -0.004700322
创建 0.0027726737 0.0043814355 -4.057447e-05 -0.0034002075 0.0024350532 -0.001453871 0.00057194405 -0.0042390204 -0.00078512036 -0.004172154 -0.00046654453 -0.0035225644 0.0003358192 0.0020824545 0.002826321 -0.0034221655 0.0036350356 -0.0018862159 0.00078284024 0.0008000465 -0.004471503 0.0031999007 -0.0043457267 0.0011666458 -0.0029231196 0.0029054347 0.0041967593 -0.0029255731 0.0036625718 -0.004701412 0.00029178613 0.0047015673 -0.004503274 -0.0016470862 0.0046631885 -0.0017106747 0.0031495357 -0.0010879022 -0.0006197324 -0.00011390929 -0.001938863 0.0014580102 -0.00037401533 0.0030730085 0.002540228 0.00034059797 -0.0038278922 0.002208057 -0.0023285146 0.0047879065 -0.0037724772 0.0034764349 -0.0017638868 -0.0014391753 0.00066741597 -0.0034835117 -0.0014018624 0.0029682778 -0.0022710098 -0.0018579568 -0.0031376001 -0.0009197642 0.0027232266 0.0038971053 0.00092736934 -0.0024741173 0.0034978264 0.00026028 -0.0037183654 0.0012378152 -0.0020853844 -0.0028052724 0.003455826 -0.0035418856 -0.004802089 0.0015109583 0.0031581589 0.0034045556 0.004727934 0.00012741475 0.0019072096 0.0033012345 -0.002562107 0.00017292993 -0.0038683591 0.002062016 -0.0035793588 0.0022946298 0.004836139 -0.0021481386 -0.0013276455 -0.004731707 0.0017977095 -0.001327354 0.0023965952 0.0036867461 0.00020936783 -0.0029087171 -0.00035307114 -0.003739055
神经元 0.0003468517 -0.0037719558 -0.0047214064 0.002430816 -0.0044531953 0.0007445649 -0.0014364047 0.004558225 -0.0043430272 0.003106436 -0.0050133998 0.0027707496 0.00035692586 0.0027575688 -0.0006719663 -0.000388245 0.0041038166 0.0017108826 -0.0027880927 -0.003405163 -0.0038919933 -0.0011728847 -0.00020061631 0.00477206 -0.0006717305 -0.002725634 -0.0033208719 0.0017843521 0.003427809 0.0013898769 -0.0015577843 -0.0031318683 -0.0007314971 0.0019317577 0.0047674244 -0.004575747 0.0045935805 -0.003452471 0.002526229 -4.235546e-05 0.002504503 -0.002664859 -0.004217907 0.00074452575 -5.2560034e-05 -0.0034256373 0.004710339 -0.00071491307 0.0016371657 -0.00258092 0.0018029396 0.0048536365 0.0040560775 -0.0013813443 -0.0019577362 -0.0020026192 -0.00012600479 0.00046659165 0.004339181 -0.002493645 0.0035903205 0.0023379582 -0.00031217994 -0.0044409735 0.0019849364 -0.0039598187 -0.0025093616 0.00013028143 -0.0030404932 0.002960777 1.9802721e-05 7.064088e-05 -0.0028694377 0.003958042 -0.0019020392 -0.0012847786 -0.0024855128 -0.00059532636 -0.0041861716 0.0030299774 0.00044060138 -0.0046823896 -0.0027467757 0.0010036355 0.0036272088 0.0013601378 -0.0006002186 0.0041326974 -0.0046672015 0.004146278 -0.0040018233 -0.0026091246 -0.00244504 0.0007515053 0.0040324125 -4.7777034e-05 -0.002009586 0.0007631572 -0.0009661917 -0.0040522716
之间 0.0014215665 0.0020222901 -0.0006351824 -0.00068103045 0.002523451 0.0016152972 0.0006297125 -0.0044237915 0.0027211097 -5.6384793e-05 -0.0028435243 -0.0017394588 -0.0001606019 -0.0020235002 -0.0015454749 0.00017903518 -0.00048760753 -0.0013201458 0.004618613 0.002876183 0.004143399 0.004735524 0.0011292058 0.0026752504 0.0020388202 0.003264209 -0.0039792 -0.0037719805 0.001566101 0.0043214234 0.00487107 -0.0046255062 0.002274481 0.0049703056 -0.0017412521 -1.8579043e-05 -0.003947894 -0.00030911624 0.0024918788 -0.0023396688 -0.0014213272 0.0010482785 -0.0030482255 0.0039766915 0.0027360367 0.0016744188 -0.0005374266 4.1786425e-05 -0.0015309217 -0.00081926427 0.0034600967 0.0028793546 0.0030469252 0.0028768738 -0.0041212463 0.0029380529 -0.003831572 -0.003193327 0.004723661 0.002441547 0.0039332793 0.0002938197 -0.0012967414 0.0012096053 0.002115173 -0.002784519 0.0049027395 0.0015308526 0.004286064 0.0016295854 0.003476931 -0.0012521817 0.0016586218 0.0019459095 -0.0045798803 0.004139053 -0.0043454506 0.00148037 0.0014597639 0.003099576 -0.003122035 0.0018855195 -0.0030524298 0.0047810483 -0.0039562383 0.00066426455 0.0012423635 0.0016433077 0.003665844 0.0015569278 -0.0027440458 -0.0049017468 0.004745899 -0.0012519743 -0.00038442272 0.004637145 0.0023789948 -0.0048839846 0.00424538 0.00079146324
关系 -0.00093308545 0.0023786025 -0.0010623053 0.004802253 -0.0034673146 0.00054977974 -0.0035522578 0.00377647 0.0015161955 -0.0023139461 -0.0019225954 0.0012891717 -0.0039543235 -0.0007328199 -0.002888359 -0.003421121 -0.0013299977 -0.000785738 -0.00065072865 -0.0027005142 0.0036016165 -0.0028971618 -0.0017244393 -0.0002641811 -0.0035317545 -0.00314004 -0.0024482778 -0.0009608069 0.003662067 -0.004795239 -0.0038610883 0.0023165222 0.0008967613 0.0005529886 -0.00027914828 -0.0012157338 0.0008978158 -0.00016332796 -0.001776802 0.0045554503 -0.00078161247 -0.00385944 -0.003875187 -0.0045445208 -0.0037257911 -0.004019123 -0.0032462347 -0.004313089 0.00036885135 -0.0023821725 0.0026336138 -0.0012748401 0.00396614 -0.0033413253 0.0021222539 0.0048882705 0.0034240251 -0.0048316764 0.0047153193 -0.0003101645 0.0010534445 -0.004046802 -0.0028642723 -0.004097338 -0.0025716776 -0.0023334895 0.0021916195 0.0045178356 -0.00020821688 0.002341826 0.004126509 -0.0018064901 -0.003127112 -0.0043983352 0.0036584665 0.0007722131 0.0038128803 -0.004163032 -0.002040908 -0.0049965195 -0.0043062894 -0.0038211253 -0.0010955251 0.002102934 -0.0005253705 0.0039845384 -0.0022821352 -0.00445585 0.0023280035 0.0014898167 -0.004255686 -0.0005106031 -0.0023678858 -0.001199148 0.00015367259 -0.0033067197 0.0020370493 0.0032054882 -0.002560598 0.004149531
研究 -0.0037935392 -0.0026038012 0.0012148198 0.003960429 -0.0043632207 0.0047931955 0.00089859875 0.004241435 -0.0016776304 0.0019077755 0.00043332798 0.0009521404 0.002659878 0.0006471443 -0.004695433 -0.002143436 -0.00059160445 0.0032492704 0.00395314 -0.00011113755 0.0028959042 0.00041098925 0.0025369641 -0.0042016776 0.0049785236 0.0003272868 0.001054385 0.0010507429 0.0025923783 -0.0024339994 0.00020827682 -0.0010971685 -0.004410207 0.0021172685 0.0010760935 0.0015027272 -0.0007097554 0.0044497927 -0.002116188 -0.0021389313 0.0014271255 0.0020114868 0.0008840746 0.00075693696 -0.0007413156 -0.0002220044 -0.0032643278 0.003581256 0.00045099593 -0.00039305387 -0.001515301 0.004246833 0.004700502 -0.0035303356 -0.0007171605 0.0037283974 -0.0010958161 -0.0037462895 -0.002350756 -0.0014008556 -0.00022877677 -0.0011766292 -0.00040305732 0.0004321437 -0.0044744546 0.004460622 0.0033341097 0.00049740396 0.004458678 0.0024032122 0.0042810445 0.003537815 0.0005283746 -0.0027659836 0.0020820952 0.0034393051 0.0023425913 -0.0017465366 -0.0025507964 0.00033127863 0.0037830542 0.00046473352 0.0013504534 -0.0008953031 0.001505922 0.0013346424 -0.0012399836 -0.00086038985 -0.00028586516 0.00080174435 -0.0016840353 0.0016901226 -0.00069876236 0.004890305 0.0033576712 0.0033102084 0.0011185494 0.0029425889 0.0022194225 -0.0040710783
历史 -0.0038913814 0.0019859937 -0.000212036 0.002272531 0.0007293288 0.0011713112 0.0048888815 -0.0025711916 -0.0025610942 -0.0023043572 -0.0021648535 -0.0012921743 0.0036695187 -0.0014497882 0.0038061643 0.0021653732 -0.004850714 -0.0012886147 0.002830089 -0.002777933 0.0017229356 0.004993965 -0.003257959 0.0042060716 0.0047121434 0.0009984308 0.001947616 0.001291326 0.0027776149 0.0025044472 -0.002098354 -0.0026837667 0.0019541886 0.0014424609 0.003039995 0.0011208678 -0.0014586104 0.004878594 0.0023706306 0.004952201 0.0017852981 0.0026371724 0.0022436671 -0.004350847 0.0039311387 -0.0011898375 0.00017013134 0.0023232948 0.00030115922 0.0035900802 -0.00039172728 0.0035199935 0.0049370355 -0.00043022353 -0.0047837044 -0.00057280774 0.001983109 -0.00097119925 0.0020799963 -0.0045855693 -0.004769697 0.00016382581 0.0023776216 0.001987528 -0.0027039181 -0.0018274565 0.0006443412 -0.00040893312 0.0022973758 0.00088689825 -0.002303913 -0.0030288096 0.0041529173 -0.0038421685 0.0002811179 0.0025175768 -0.0014815809 -0.0046067163 -0.0036778476 0.0017613602 -0.001172857 0.0037802856 -0.001049281 -0.0029894302 0.0002100055 0.0023630378 -0.0024252024 -0.0006025095 0.0016904954 0.0033805864 0.0032179721 0.0030818526 0.0033028105 -0.00030114927 -0.0032218308 0.00042533744 0.00096483703 0.0021935368 -0.0009217474 0.0024917051
一条 0.002041741 -0.0026450425 -0.002842489 0.000542343 0.004879741 0.0043731825 -0.0007652047 -0.0046191956 -0.0035101837 -0.0009669121 -0.0038268303 -0.0018850596 0.0040848437 0.003980033 -0.0012524085 0.00056242134 -0.0012614032 -0.0010654319 -0.004702077 0.0044512367 -0.004616196 0.004877979 0.0018923851 0.002547866 0.00014288323 -0.0045075887 0.0014785631 0.004700455 0.0014277484 0.001103467 0.004284392 -0.0023489562 0.0010629128 -0.00031108328 -0.00030513658 0.0017631627 0.003280724 -0.0017219981 0.004397342 0.0031063908 -0.0035394619 -0.0002655643 0.0029663898 -0.004704916 -0.0033801082 0.0031607058 0.0015475212 -0.0036084978 -0.002364265 -0.00013041472 -0.00080162444 -0.0021806953 0.0014858181 0.0022774346 0.0015702631 -0.0028645084 -0.0027720502 0.0045583206 0.0025253622 -0.0046930695 -0.004906776 -0.0014741503 0.0011588607 0.0046294574 0.0024996477 -0.0037256246 0.00032091554 0.004642315 0.0038774572 7.280522e-05 -0.0031967373 -0.0012610122 -0.003989346 -0.0038607204 -0.0012760358 0.00054668536 -0.0016065928 -0.0022040058 0.001047601 0.0032006125 0.0009912907 -0.0021274965 0.0024025806 0.0038204142 -0.0031241637 -0.000615234 -0.0048141116 -0.0025941215 -0.005001024 -0.0017683444 3.838338e-05 -0.0041276235 -0.0016845693 -0.0037697884 0.0019819562 -0.0022848344 0.004594077 0.0021724843 -0.0045375936 0.0040985546
从以 0.00056035887 -0.0015359954 -0.0041374117 0.0027288245 0.0013093456 -0.004428035 0.0032214364 -0.0027457622 0.0022567257 0.0026820025 0.0007045948 0.0045530647 0.00413496 -0.0038320266 -0.0035368586 -0.0029654328 0.0026295257 -0.0009765674 0.00019955546 0.0013606781 0.0035567577 -0.0019898908 -0.0010526152 -0.003701261 0.00092492887 0.000117495365 0.0036672666 -0.000662424 -0.00097050983 -0.002760581 -0.0037662317 -0.0047456273 -0.0005401603 0.0017403595 0.00023309093 0.0014502346 -0.002708793 0.0036345557 0.00039806444 0.0013104181 0.0042389645 -0.002507464 -0.0028198466 -0.0036004975 -0.0021712426 -0.0024583447 0.001787336 -0.0013476308 -0.0037718208 -0.00086182955 -0.003048035 0.0014360462 0.0038310224 -0.0007670452 0.0025806387 -0.00023958125 -0.0023283658 -0.0011447283 -0.0043173116 -0.0018139657 -0.00041573617 -0.0016613677 0.002168136 -0.0025516823 0.0026375498 -0.0009477208 0.00054769614 0.0015914905 0.0019922238 0.004385552 0.002556601 0.0012665002 0.0017010728 0.0014093238 -7.82046e-05 0.0037341402 -0.0031685128 -0.0043538217 0.0038183709 -0.0022884891 0.0035785977 0.003298897 0.0014798727 0.0024367746 -0.0018604845 -0.00439129 0.0037851783 0.0020467557 -0.00094261364 -0.0025890213 -0.0031555223 -0.0009715683 -0.0038725056 0.0024229109 0.0017715513 -0.004739698 -0.000547809 -0.0046044304 0.00017265845 -0.00075461896
推理 0.0021119914 0.0037746103 0.002909448 -4.22268e-05 0.004813687 -0.00461879 0.0017107953 0.0042282986 -0.0021872856 -0.0005435329 0.004334401 0.004291281 0.0024444829 0.0021144766 0.0013089866 0.00035788893 0.0047077113 -0.0031786368 0.004417517 0.00010910987 -0.0012915322 0.00016068462 0.002973377 -0.0049667964 0.002482024 -0.0016003842 -0.0032417858 -0.0026574049 -0.0044563455 0.003211251 0.0046967226 -0.0023938417 -0.0023730102 0.0017428267 -0.0027923526 0.0014782554 0.0011977591 -0.0017297497 -0.0008443404 0.0020482426 0.0023295875 0.0040008463 0.0027622723 -0.00097486895 0.0008706678 0.003362704 -0.0017928801 -0.0002742552 -0.0033244174 0.000995872 -0.0041942475 -0.0016714582 -0.0016725896 0.0041737254 0.003863836 0.00013957666 -0.0032589457 0.0034425012 -0.001230838 0.00041304415 0.0009006709 -0.0036751756 0.0007264635 0.0003984075 -0.0015934892 0.0037057865 0.0043860185 0.0002349782 -0.0006245899 -0.0049434523 -0.0045160255 0.00083367253 -0.0014129961 -0.004196517 -0.0037552074 -0.0009050545 0.0011537473 -0.0041240314 6.346433e-05 0.0009271128 -0.0030464178 -0.0010993301 0.0002085734 -0.0015240852 0.004799882 -0.0042522126 0.0024069736 0.0005905593 0.0048565636 0.0013292965 -0.0028290225 0.004018224 0.0010355482 -0.003961601 0.0018281109 0.0039014611 0.0011014548 -0.0032181405 0.0012642813 0.0026123691
知识 0.0021485025 0.0012661178 0.0036562507 -0.003348979 0.0033367332 0.0015385633 0.0037656224 -0.0004014686 -0.0024466196 0.0038795858 0.0025620335 -0.00033053922 -0.004813691 -0.0023312862 0.0024192813 -0.0015024565 -0.00032625097 0.004342744 0.001449979 -0.000518813 0.0019687463 -0.0016793457 0.0040549603 0.00023104943 0.0028547652 -0.00026636975 0.0043246527 0.0038564752 0.0048929164 -0.0022366387 -0.0015429675 -0.00047642947 0.003392652 -0.002134531 -7.0477305e-05 -0.003289778 -0.004039128 -0.0023556969 0.0016477815 0.0048733526 0.002666582 0.0030871972 0.0046882806 -0.0011846095 -0.0045285854 -0.00045488513 0.0010299092 0.0005093084 0.0045686243 0.0007421297 0.00091666006 0.0029757658 0.002896209 0.004745752 0.002900067 -0.0042711766 -0.0036186874 -0.004700925 0.0020818964 0.004599911 0.002241717 -0.0030748532 -0.004254338 -3.5197103e-05 0.0011679735 0.0017901697 0.0043939305 -0.00056236464 0.004235468 0.00249875 -0.0004713803 0.0024758063 -0.003678781 -0.0031449727 -0.0010535308 -0.0044436166 -0.0015898796 -0.0023153203 0.0023152325 -0.0035078283 0.0018269278 0.0022268104 0.0013919154 0.004038318 -0.002862476 -0.0006127254 0.0032286514 -0.0017012375 -0.0010459032 0.0033336624 -0.0006266938 0.003775475 0.0039246725 -0.0038528196 0.000861808 0.0027757653 0.00018589266 -0.004513739 0.0013587439 0.00082690467
自然 -0.0037461908 0.0032742731 0.0048289653 -0.0025740557 -0.00037772578 -0.004859809 0.0036774552 -0.0026427354 -0.004630982 -0.003988823 0.0049651735 0.0045814216 -0.0011839017 -0.0046981755 0.00015729011 0.0015686454 -0.0005500984 -0.003842319 -0.002979742 -0.0026261052 0.0001585361 -0.002270276 0.0012746096 0.0018868233 0.0026354848 0.004025701 0.0039622798 -0.00047042704 0.0022560148 -0.0016577627 0.004242756 0.0048412196 0.0031244692 0.0031095643 -0.002259962 -0.0012657187 0.00051669474 -0.001506716 0.0016777477 -0.00078301557 -0.0033435354 0.000117399235 0.003607811 -0.000104389015 0.0029496546 0.0018891926 0.00431992 -0.0015309019 0.0023788558 -0.0048960117 0.003921563 -0.003855635 0.0034052825 -0.004201676 0.0022182665 -0.00300255 -0.0028607093 -0.003182226 -0.0046291435 -0.004611937 0.00096807105 0.0026739382 0.002842679 0.0013893106 0.0006275382 0.0041439706 -0.0009755788 0.0048237266 0.004483941 -0.0040724603 -0.0017180309 0.0035792517 0.0032658717 -0.0018936299 -0.00057404576 0.003942072 0.00392165 -0.0014335711 -0.0038942292 -0.004891708 0.0020606606 -0.004878538 0.0040190388 0.0037751792 0.004868032 0.0048687216 0.0019684026 -0.0031786147 0.0015644939 0.0016307093 -0.0032748175 -0.0032196227 1.7937498e-05 -0.0023399938 0.0034543436 0.0038208223 0.003165124 -0.00037067363 -0.0011150435 -0.00077755225
清晰 0.00484098 -0.0007811507 0.0021544653 0.0015717917 0.00282459 -0.0036051853 0.0041343793 0.003094437 0.0021033923 0.0039973496 0.0015746902 0.00011376177 0.0044289054 0.0007176541 -0.0016185137 -0.001455588 -0.0014468182 -0.0032739136 0.0021346312 0.0042752777 -0.0025668032 -0.002448883 0.0036997818 0.004939907 -0.0046884 -0.0011985468 0.0008335729 -0.0008841663 0.0049416204 0.0023715214 -0.0014244939 -0.004134353 -0.0043736487 0.0012049187 0.002615723 0.0046033035 -0.00072866253 -0.0022582605 -0.0035054153 -0.00071775843 -0.0008241427 -0.002977406 -0.0006368955 0.0018657693 0.0030766102 -0.0025507284 -0.0008630625 0.0022164898 0.0013443573 0.0004607296 -0.0034939847 -0.004354125 -0.0030365388 0.002425999 0.0044453978 0.002520833 -0.00216381 0.0048571643 -0.0009337787 0.00041580581 0.0041319905 -6.9482536e-05 0.0026026818 -0.0016021396 0.0009749702 0.0033266908 -0.0009202533 0.0021048149 0.0014846358 0.0002912352 -0.0010783385 -0.004939702 0.0033230323 -0.0033505457 0.0037185 -0.0007534609 0.0015065534 -0.0048292344 0.0014746785 -0.0023702115 0.0012501415 -0.0012965844 -0.0046107117 0.004823891 0.0038844058 0.004881394 0.0007925779 0.0019673842 -0.00029513068 -0.0020623172 -0.0043322225 0.0016769896 -0.0011057631 -0.00011440455 0.0007832827 -0.0018398482 -0.0018088275 0.0038646027 -0.0037436455 -0.0014352255
脉络 -0.0005875688 -0.0032736424 -0.0026265301 0.0013930756 -0.00022003608 0.0026664434 -0.0025523242 0.0024776147 -0.003250543 0.002356729 -0.003298561 0.0022076922 -0.0017452895 -0.00016534407 0.0037727368 -0.00076462684 -0.0024416484 -0.0003896546 0.0021405427 0.002705414 -0.002902931 0.002960794 0.0038934308 0.00039270724 -0.004922926 -0.0049499488 -0.0028152901 0.0040878034 -0.0026377118 0.003638479 0.0032460506 -0.0015424825 0.0017950588 0.0037636522 -0.0018370694 0.0038383207 0.0032031527 -0.0036041297 0.00040435346 -0.0039900695 -0.004788025 -0.0012885145 -0.00031927024 0.0048811324 -0.0048389835 0.0011143192 -0.0047848416 -0.0010559304 -2.0844337e-07 0.0031553204 -0.0011906908 0.0011439181 0.0016120652 0.002079389 0.0026345714 0.0035405855 0.004355148 0.0046048695 -0.0028320604 0.0023432593 0.0017074535 0.0032286027 0.0012970258 -0.0041403705 0.004936821 0.00293085 -0.0015649961 0.0014762206 -0.003005399 -0.003057971 0.0007045859 0.0041530486 -0.0028197914 0.0028170687 0.0032502688 0.0032872474 0.0027156596 -0.00054166553 -0.004022884 0.0045591467 -0.003766045 0.0028978386 0.002844103 -0.004096074 0.0034016042 -0.004398229 0.00083801814 -0.0030760756 0.0005969031 -0.0019290176 -0.004411248 0.00097062264 -0.0007290758 0.0014904399 0.0044198204 -0.0017171483 -0.004953143 0.0029364566 0.004583187 0.0005946472
途径 -0.00074350234 0.0022564533 0.0012615236 0.0018400932 -0.0035461485 0.004716625 0.004975955 0.0025906207 -0.0023639572 -0.0016870633 -0.0027276417 -0.0006663688 0.0022833773 0.0019743058 0.002438433 0.0026955586 -0.000121068166 -0.0016115312 -0.0019648531 0.002686978 0.004292037 0.0025508148 0.003392913 0.0036638526 -0.002250541 -0.0020885475 -0.0025681334 -0.004868913 -0.0011025389 0.00031110473 0.0018934996 -0.0013339355 -0.0016004166 0.002735205 0.0045111543 0.00052811956 -0.0046629757 -0.0024302518 0.00027272585 0.0006459952 -0.0036588232 0.00073689816 0.0009819187 -0.0034269071 -0.0041726055 -0.0015838766 0.0007714595 -0.00040646727 -0.0021315934 0.00090941665 0.0023404898 0.0040437267 -0.004790971 -0.0040643215 -0.0047452943 0.0018283728 0.0043671974 -0.0037050727 -0.0026821475 0.00083002466 -0.002556641 0.0033955278 -0.004786298 0.0044071586 -0.0031076937 0.0040310845 -0.0044779247 0.0047144354 -0.00402645 -0.004637592 -0.0003700762 -0.003965041 -0.00090620056 -0.0017162468 0.0017274935 0.0031690083 -0.003133008 -0.003798437 0.0015250636 0.0030115177 -7.170543e-05 0.0013080337 -0.003082099 0.0021019718 0.0013143299 0.0048868745 0.0019239237 -0.0033933592 -0.004794854 0.0023998753 0.003636608 0.002365305 0.0012126253 0.0041509364 -0.0041905334 0.0006685034 -0.000119368146 0.0021053532 -0.00096688024 0.0024714675
即以 0.004781327 -0.004315569 -0.002261484 0.00051279145 -0.0045012776 -0.0034991784 -0.002308569 -0.002029594 -0.0045347307 -0.0038199173 0.0039680884 0.0039751506 0.0032466566 0.0040751887 0.0027079512 -0.0025173998 -0.004511789 0.0041847494 0.00017415118 0.0016126207 -0.0035423199 -0.00089898444 -0.0018021563 -0.0018891052 0.0032471984 -0.004705444 0.0021440606 -0.004770875 0.0043255743 -0.0011742198 -0.002721184 -0.0029476993 -0.004711278 0.0017278673 -0.0022035737 -0.00220395 0.0039039322 0.0025280134 0.0022983144 0.0036251948 -0.0030402946 -0.0003774619 0.0012062108 -0.0014140183 0.00062057 0.0020234913 -0.00077165687 -0.0033066415 -0.0010788591 0.0029189992 -0.0020581516 -0.0041142027 0.0017402158 -0.0027849644 -0.0018805766 0.0047356416 0.000580359 0.00018176825 -0.0016946679 0.0010009443 -0.0023148584 0.0021119 0.0040321546 -0.0017884368 0.0005674808 0.0022011155 0.0010574163 0.0011643706 -0.002485714 0.00012179409 -0.0037562882 0.0019583062 -0.0046629524 0.0029309785 -0.0018159944 0.0014366218 0.0004575012 0.0042746076 -0.00040398262 0.0045423247 0.0037859564 0.0029163293 -0.0043183756 -0.004478458 0.0020270455 0.003530386 -0.0020677887 0.004069589 -0.0033342072 -0.001290667 -0.001032332 -0.00075624295 -0.0032772566 0.0030376248 -0.0016847537 0.0031413925 -0.0012212121 -0.0009204489 -0.0028348174 0.0025426163
手段 0.0011706367 0.0047356086 -0.0019583986 -2.400831e-05 0.0016996892 -0.0031554992 0.0035726542 -0.0047927015 0.0011638645 8.874117e-05 -0.0045591234 -0.004315343 0.0022092897 -0.004669309 -0.0043463414 -0.0013063455 0.0035243414 0.0049815294 -0.0031004427 -0.0021799558 -0.0039685112 0.0012405439 0.0009708146 0.0031665282 -0.004705498 0.0038672823 -0.0041458914 -0.0013678728 0.0004513298 0.0011542945 0.003311188 -0.0011043737 -0.0011617882 0.003484352 -0.0005420192 0.0018488345 -0.0020220398 0.004159531 0.0036180702 0.0017263128 0.003707015 0.0028695946 -0.004501947 0.001054198 -0.0035971035 -0.0048488686 0.0027459436 -0.0015075922 0.0035669992 0.0020583028 0.00091052114 0.00021639735 -0.0008098015 0.0039328886 0.00367064 0.0021697737 0.004667199 0.004293319 -0.0033246777 -0.0018000964 0.0020236436 -0.002096477 -0.0012672802 0.004973961 0.0025080647 0.0001276128 0.0006776223 -0.0046892026 0.002176005 -0.001862221 -0.002946255 0.0013813847 -0.0014709749 0.0045595258 0.0034791322 -0.0018222078 0.0032746294 -0.0035731231 3.0513263e-05 -0.001309653 -0.0032826706 0.0028971047 0.003884446 -0.004411049 0.0007262084 -0.0046909708 0.00228806 0.002035881 0.0013536067 -0.0030148127 -0.0007275748 -0.003740564 0.00327568 0.0045234943 0.0036508157 -0.0031568555 -0.0028920702 -0.0025513498 -0.0030621719 -0.0032382554
解决 0.0021651518 -0.004653297 0.0038487143 -0.0019812048 -0.004978127 0.00076872733 -0.0017286923 0.00074569014 -0.004185984 -0.0008704513 -0.0011070474 -0.0017619148 0.00085237226 0.0040715165 0.0025574318 0.0037737095 -0.00070621335 -0.0019754888 -0.0027161355 -0.00443996 -0.0039103767 0.0037069453 -0.0038077047 0.00014272261 -0.0042409743 -0.00093741535 -0.0047158618 -0.0047979453 -0.002699282 0.004876748 -0.0040667737 -0.0013152676 0.0013079473 -0.0009729903 -0.0004759292 0.0016859964 -0.0030094606 -0.0045372965 -0.00030194127 0.004539994 -0.0022994177 0.0013597542 0.0008351419 0.00066464517 -0.0006620888 0.00018170601 -0.0030300766 0.0016305564 0.0025912863 -0.00088456617 -0.0015874866 0.0033792243 0.0016681532 -0.00452879 -0.0026468802 -0.0048249825 0.0006640575 0.004944972 -0.0014484342 -0.001863936 0.0026819243 -0.0037849515 -0.0025237242 0.0020961843 0.0043269424 -0.00084382424 -0.004078599 -0.004520125 -0.0044551794 0.0025088931 -0.0018854525 0.0022116173 0.0039307512 0.004431438 -0.003943394 0.0030747864 0.0009068429 0.00045289609 -0.0024488831 -0.0013617018 -0.00028426934 0.0011170247 -0.0012224149 0.00217441 -0.002416381 0.004023597 0.0039907917 -0.0048667868 0.0027064236 -0.001871787 -0.0011349894 -0.00073181855 0.0012224385 0.0004339578 -0.0043804324 -0.0033486634 0.0047750087 -0.00252505 -0.003606856 0.0012246012
30 -0.0024506291 0.0011852558 -0.0048758686 -0.004108284 -0.0020305538 0.00047830297 -0.004843427 0.0044085174 0.00047108252 -0.0020831197 -0.0018338958 0.0033633194 -0.0022239417 -0.00082799746 0.0030954073 0.0014059878 0.0007564138 0.00066254864 0.000977571 -0.0022844777 -0.00013546989 0.0034376532 -0.0024109846 0.0044095004 0.0045058005 -0.004238743 -0.0028130792 0.004991882 0.0017876934 0.0024589808 0.003760627 -0.0024113024 -0.0019237761 0.0028953752 -0.0033975889 0.00037890047 0.0034666224 0.0016536337 0.0046286164 0.0022523992 0.0034237134 0.0024729632 0.00074147416 -0.0019952955 -0.0017734602 0.0015655224 0.0045082457 0.00041735303 -0.00018667278 -0.003293644 0.003200795 0.0021392407 0.001389475 0.0015250231 0.0028689986 -0.0036738594 0.0030626461 0.0020534873 0.0023257225 -0.0013574524 -0.00015673686 0.0049954294 0.0032900106 -0.0041301004 0.004987826 -0.0016276188 -0.0044518663 0.0027840808 -0.002453531 0.0025927958 -0.0022574663 0.0029178455 -0.0039011596 -0.0037039134 -0.0038335838 0.0006308028 0.0031728302 0.0013993031 -0.00033514574 0.0026429293 -0.0027631659 0.00031403225 0.0034455443 0.004978791 -0.0049350285 -0.00063381955 -0.004652491 0.00037813786 0.0019000769 -0.0046949787 0.0013525008 0.00086972694 0.0018220915 8.482049e-05 -0.0005323101 -0.00048779527 8.221238e-05 -0.002337905 -0.0032553808 -0.0025639911
多年 -0.003712448 -0.0016421243 -0.0033542984 -0.0041122325 0.003455621 0.0048585664 0.004111244 0.0013552498 0.004349039 0.0031333237 0.0047129826 -0.0033012198 0.00040584116 0.00029761693 -0.0012228213 -0.0043038432 -0.0028933452 -0.0019407121 -0.0017299843 0.0006353737 0.0020133022 0.004260714 -0.001784864 -0.0001330175 -0.0037880552 -0.00044271816 -0.0014269439 0.0031862496 -0.0026432301 0.0042103236 -0.0034326601 0.0025670188 6.051422e-05 -0.0037463978 0.0023853187 -0.004886706 -0.0029667537 0.0033139486 -0.0024746233 0.00090214686 0.00061738107 -0.0007730995 0.004818753 0.004373633 0.0016479646 0.0038976984 0.003453058 0.0006806741 0.0032204676 0.00366311 -0.0029877115 -0.0009883015 0.002840237 0.0011733533 0.0027559798 0.00082208187 -0.0030811043 -0.000687591 0.00172473 -0.0014343988 0.0037533797 0.0015320661 0.0024429176 0.0049507646 -0.00090774335 -0.0038313628 0.004638766 -0.0029032724 -0.0048418134 -0.00013687131 0.004308346 -0.003396254 -0.0029201854 -0.0016870189 0.0038291744 -0.00200393 -0.0011314031 -0.004196 -0.0033835303 0.0015610306 0.0014642049 -0.001630624 0.0029721623 -0.00327379 -0.0025897266 -0.0009981295 -0.0018800584 -0.004321809 0.0015171402 0.0017112917 0.0021971178 0.0010284871 -0.00076350255 0.0049608555 -0.0048100012 -3.2015555e-06 -0.0019577458 -0.0039595193 -0.0045294794 -0.0031786386
发展 -0.0007131248 0.0028808306 -0.0013071055 -0.0011327632 0.0036345983 0.00033715199 0.0024957545 -0.0038756914 0.0044744797 0.0049249986 -0.004502401 0.0010823136 -0.0026586773 3.2829736e-05 0.0023828528 -0.002835069 -0.004556639 -0.0018520344 -0.00019506237 -0.004432544 -0.0015777596 -0.0015566003 -0.0014107699 0.0045074136 -0.0039879167 -0.0049969135 -0.002892366 0.00048748983 0.002254908 0.00043198507 -0.0036730005 0.004709799 0.0049738213 0.0007027794 0.0027001165 -0.0023627852 0.0027802826 0.0020388018 0.003889982 0.0009480643 0.0007675205 0.0046153027 0.003003903 0.0035672556 0.00037665849 0.0018057018 -0.0028108736 -0.0011649498 8.392216e-05 -0.004769303 -0.0036469686 -0.002798033 0.0010236433 -0.0014447522 -0.00093423075 0.0046348986 0.004708037 -0.0025590898 -0.0023017367 -0.0013697909 -0.0043289885 -0.00053695537 -0.0039997003 0.0026251492 -0.0014666554 -0.0016437008 0.0045521 -0.0035786226 -0.0019371146 -0.0032682158 -0.002990232 0.0020761306 0.0022410192 0.0021074307 0.0030731729 -0.003966981 -0.00387768 -0.003028124 -0.0033825508 -0.002967041 0.003185025 -0.004184358 -0.0018506384 -0.0040626447 0.000785929 -0.004490578 0.00084808003 -0.00019007803 -0.00396909 0.0032373439 0.0009503058 0.00059111026 0.0022422357 0.0049429964 0.0002896376 -0.001853673 -0.0010288706 -0.0011862891 0.0047733607 -0.003955303
一门 -0.00075258623 -0.0012134097 -0.00026173823 -0.0031793753 -0.0035567705 -0.0009621688 -0.003777166 -0.0028569228 0.00032725328 0.0007098437 -0.00094918 0.0043089725 0.0048650648 -0.0024971461 0.0048945807 0.004806233 -0.0025549254 0.0022732273 -0.0004077183 -0.004364548 0.0021149616 0.0034592997 0.00066624384 0.00033258504 -0.0011199695 0.004133571 0.0036725996 0.0014137913 0.004009216 0.0019955616 -0.0015851181 0.0003818286 0.000955123 0.0022696764 0.0031338364 -0.0035407287 0.00072977704 -0.00272138 -0.00036888226 -0.0008181598 -0.0004891507 -0.0025023362 0.004011203 -0.00039036133 0.0049326317 -0.0021806736 0.0002070085 0.00092583155 -0.0038621535 -0.0025384945 -0.0020361526 -0.00023260059 0.003757377 0.0038790682 0.004529266 0.00057831244 0.0020971342 -0.002457144 -0.0046218694 0.0033408152 -0.0020561244 -0.00087417127 -0.003951386 0.0028158615 -0.002533084 -0.002263663 -0.0047005755 0.0009134038 -0.00061030587 -0.00064733025 -0.0014865374 -0.0021812702 -0.0032101586 -0.0012687058 0.002956187 -0.002340476 0.0029556174 0.0014149281 -0.00024833894 0.0014211464 -0.0046485146 -0.0046593584 0.0019272098 0.00054574717 0.0011886059 -0.0049732667 0.0019403287 -0.0027432612 0.0036712338 -0.0038068716 0.004533821 -9.711495e-05 -0.0014532318 0.0013157283 -0.003369651 -0.004424279 -0.0015733384 -0.003138721 -0.0023456318 -0.0040816357
领域 0.0022886742 -0.00022016917 0.0048230975 0.0016987886 0.003115825 -0.0044385605 0.002416369 -0.002426295 0.0030467277 -0.0031724463 -0.0018290776 -0.0026642613 -0.00045324958 -0.0023260864 0.0033196716 0.0044415775 -0.002886344 -0.0015419103 0.0047098063 -0.0034215206 -0.0027097338 -0.0028760354 -0.004668978 -0.0011182224 0.0044337115 -0.00080528966 0.0023525998 0.0001355087 -0.00023980494 0.004892615 0.0036165437 -0.0041225315 0.0042992104 0.002023403 -0.002138643 -0.0020987964 -0.0005056933 0.0033966098 -0.002729569 0.002677098 -0.0010509755 -0.00030105404 0.0019184066 -0.0013449503 -0.0042051002 0.0014345831 0.0013844827 0.0011313054 -0.004574954 0.0046269796 -0.0012028227 0.0023898906 -0.003935487 -0.0009547661 0.0014475281 0.00026765137 0.00038654127 -0.0034060415 0.0021585005 -0.0028987266 -0.0016279477 -0.0038168281 -0.0033949278 0.0032574274 0.0011769843 0.0037575983 0.0014621037 -0.0021228169 -0.0023028748 -9.808323e-05 0.003189752 -0.004968026 0.0043776305 -0.0027373456 -0.0022526109 0.0025315275 0.0028238713 0.0004984194 -0.00055871764 -0.00028264258 -0.0044869566 -0.004366379 0.0031851523 0.0023159508 -0.0033071742 0.0044240938 0.0022459836 0.0045305346 0.0040458734 -0.0030450723 -0.0024612837 -0.0041031786 -0.00016294402 3.8716422e-05 -0.0035317363 0.0024560788 -0.0033497156 -0.0038648073 -0.004266535 -0.0019941512
交叉学科 -0.0016945851 0.0047250907 0.0031508813 0.00014572816 0.0017902995 0.0024412412 -0.0037732727 0.003516654 0.0012079728 0.00012274667 -0.0004578005 0.0017562152 -0.00423323 -0.0022518432 0.00036837437 0.002322459 0.0012531983 -0.0031560827 -0.004551375 0.0007425945 0.0034295213 -2.4476494e-05 -0.0031551928 0.002295634 -0.0021846194 0.0039125565 0.002101424 -0.0030949851 -0.0029977153 -0.0017599664 -0.0011196686 -0.0014145309 0.0009745772 -0.0028194436 -0.0010825392 -0.00066920277 -0.0013545667 0.0031886674 0.002899103 0.004686759 0.0032087606 -0.0028086004 -0.0020957883 0.0039485814 -0.0032916805 -0.00080367405 -0.002049294 0.00078900554 0.0010416103 -0.0021785602 -0.0040130885 -0.0040466674 0.0011709906 0.00011169739 -0.0032783735 0.0006131462 0.0040455703 -0.00202366 -0.0010638526 0.003914909 -0.0009899385 0.004970119 0.0033260116 -0.002979696 0.0011474184 -0.0028930074 0.0020014064 0.0015185918 0.0020207434 0.000961282 -0.00078070123 -8.822486e-05 -0.0029685881 -0.0028209898 -0.00017027136 -0.0021782846 0.00013086299 0.0022446422 0.0045711193 0.0017959425 -0.00044705087 -0.0021148245 0.00086470466 -0.0024404293 0.0021225275 -0.0019303168 -8.442296e-05 0.004735759 -0.0008436965 0.0039631915 0.0044994466 0.0029184017 0.00019259179 0.004605312 -0.0039047857 0.002002634 -0.002676841 0.0006571516 -1.45551485e-05 0.0026589246
涉及 0.0042947475 0.0008234219 -0.0042419718 0.0010845156 -0.0042434135 -0.0049994346 -0.0005534525 -0.0041131824 0.002420536 0.0033605658 -0.0044383183 0.0029831943 -0.0041056178 -0.004101762 0.004693124 0.0036369485 -0.004428138 0.004420084 -0.0046163034 -0.0022287702 -0.00357328 -0.0019517998 0.0021927748 -0.00070312293 -0.004304697 -0.0045663905 -0.0013382402 -0.0010568093 0.0010254208 -6.538054e-05 0.00054789335 -0.0049320767 -0.0019127722 -0.0007261271 -0.0033944391 0.00090712856 -0.0046974323 -0.00013367894 -0.0034863476 -0.0014676054 0.0041804775 0.00097146526 0.0042949296 -0.004962787 0.0007431841 0.004437968 -0.0013615458 -0.003120058 -0.00021007833 0.0034025805 0.0033179733 -0.0010759627 -0.00093471 0.00059192744 0.0032794434 -0.0019189231 -0.004968641 0.0008785483 -0.003930864 0.0007745201 0.002213241 -0.0019609428 0.00028191242 0.00015102506 -0.0010282653 -0.0035337107 0.0009725275 -0.0019079217 0.0015654085 0.0009808451 -0.0039124773 -0.0016336691 -0.0043846867 -0.00032174317 -0.0048058294 0.00074558455 -0.0018106177 -0.0038081075 0.001235765 0.0021768827 0.003434204 0.00073560036 -0.0049084015 0.0020818247 -0.00056293904 -0.004258634 -0.0008925409 -0.00020401174 0.00014627099 0.0006537401 0.0044919592 2.970281e-05 -0.001167178 0.00084044214 -0.0024298718 0.002665779 0.0016803029 -0.0010626676 -0.004163482 0.0012363432
概率论 -0.00043317128 -0.0027601477 -0.00027532963 -0.0012129912 0.0009399487 -0.00021251311 -0.004511709 -5.4550244e-05 0.00013753574 -0.002620473 0.00457537 -0.0006979914 -0.0043009147 0.0026638252 0.002734262 -0.0030404155 0.0040865103 -0.0040934347 -0.0018795771 -0.0025017397 0.0012432248 -0.0027829122 0.0044163936 -0.002620875 -0.00064245675 -0.0048940266 -0.003592525 -0.003693203 0.001525612 0.0031930446 -0.0019464847 0.0034717752 -0.0042900858 0.0002079552 -0.0012720713 -0.0049294415 -0.0047852416 0.0016805112 0.0026059125 -0.0043200185 -0.00126179 0.0017060472 -0.0036455484 -0.0013227721 0.0043594306 -0.0047532325 0.0028464538 0.0017595217 0.0004832205 0.0018970398 0.0034510677 0.0027824359 -0.00018072268 0.00054936466 -0.0042431774 0.0045080786 -0.0037246556 0.004412962 -0.00436025 0.0026270482 -0.00021974772 -0.0003189765 -0.0047955792 0.0038242165 -0.0029344659 0.0017010535 0.00084980665 0.0048413044 0.0042260075 0.0018264814 0.0039386395 0.0009949207 0.0020482787 0.0044857957 0.0014066199 -0.0037896729 0.0040009506 -0.005012172 0.002299261 0.0042113326 0.0018300865 0.001034389 -0.0046588117 0.00061128876 -0.00017143137 0.0016203003 -0.0030094332 0.0023493108 0.00032365276 0.0048955604 0.0017759255 0.004019509 -0.0045422823 -0.000669687 0.0026487662 0.004342249 0.0020097329 0.0044700177 -0.0016930625 0.001138357
统计学 -0.0016923094 0.0018246041 0.004033379 1.0848714e-06 0.0008157413 -0.0034050762 0.0009500212 0.00078667165 0.0012326094 0.0039591757 0.0009506732 0.003933368 0.004700127 0.0036489025 -0.0011287887 -0.0046673915 -0.0013403676 0.00429569 -0.00017243442 0.0008209606 -0.004047444 0.002260382 0.0020926693 -0.003839919 -0.003187781 0.002779174 -0.0023661864 -0.0016239686 -0.0045949393 -0.0032563778 0.0033378298 -0.0008126603 -0.00019485908 -0.0024010506 -0.004356427 -0.0029143747 0.0017839269 0.0042654863 0.0030395682 -0.004436111 -0.0002857534 -0.0005342375 -0.004227992 -8.787748e-05 -0.0017247896 -0.0010354461 0.0022319758 0.0032265196 -0.0008766535 -0.0032898667 -0.0017190751 -0.0040739374 -0.0042325673 -0.004201204 0.0003997997 0.0005530822 -0.002340074 0.0032506061 -0.003246389 0.003664699 -0.002333089 -0.0014971833 -0.0019685517 -0.0046313554 -0.004106195 0.0022471233 0.00040280054 0.0017028457 -0.00078152504 0.003898061 -0.0038744893 0.0017571324 -0.0035700356 -0.0019247103 -0.0036571089 -8.620122e-06 -0.004678148 -0.0016095316 -0.00093278073 -0.0044542844 -0.002047148 -0.0013591647 0.0012214954 -0.0024520163 0.0002946946 0.0045572487 0.0027824717 0.0030534507 -0.0024879463 -0.003971663 0.0012566806 0.0015957418 -0.002152564 -0.0009639215 -0.0030806349 0.0048116255 -0.004683696 -0.0025699823 0.0036338877 -0.003286738
逼近 -0.00079540536 -0.00217046 -0.0033620656 -0.0024956954 -0.00053154654 0.00419112 0.0037796602 0.0019844018 -0.00094218436 0.0041138725 0.0025429488 0.0049632587 0.0031600234 -0.0027819423 0.0030668108 -0.004366353 -0.0008543382 -0.0042882618 0.0028195148 -0.00082107494 -0.0030370622 -0.003618958 -0.0031616893 -0.0027449955 0.00042584742 -0.0013680524 0.003924686 -0.001235473 -0.0019225453 0.0004664525 0.0049662115 0.00012832947 0.00041409882 -0.0031854562 -0.00011517523 -0.003786045 -0.0025801933 -0.0048337625 0.0038780794 -0.0032880835 0.0042148624 0.0037672415 -0.001669708 0.0017915781 -0.0007623667 -0.004227577 -0.0014339834 -0.004715491 -0.004073202 -0.0013008893 -0.0036517116 -0.0040705563 0.0048861946 0.0009063632 -0.0017072028 -0.0010188009 -0.0011177055 0.0013799401 0.0033153126 -0.003654552 0.0007589243 -0.0027988453 0.0019850968 -0.0008867859 0.004386493 0.0035995932 -0.0044140806 -0.0035155325 -0.0015442997 -0.0048229247 0.0006947516 0.0024178308 0.0012364901 -0.004202342 -0.0014138129 0.000616488 -0.003797705 -0.0025757512 -0.0039056526 -0.0048827236 -0.0022805808 0.00056035316 0.00023502528 0.0020873053 0.0027193027 -0.0045212163 0.0010192385 0.00013726013 0.0031844706 0.0046608 0.0013430798 0.0032293843 0.0027952844 0.004654074 -0.002051612 -0.000827979 0.0010201155 -0.004018411 0.003951752 0.0011342404
凸 -0.0024666623 -0.0037473473 -0.0043698186 -0.001970076 -0.0016794305 -0.0046295 0.0040737204 -0.0007151421 0.00403225 -0.002437244 -0.0048140464 -0.004718856 0.002539268 0.0043813232 0.0027893016 0.002270037 0.002847539 -0.0030632557 0.0016523934 -0.0018172684 -0.004408986 -0.0006146662 -0.002211645 -0.0010708548 -0.0021757104 -0.0020267363 -0.003935974 0.0030523054 -0.0007811843 0.0029720333 0.002292574 0.0034749599 -0.00075919926 0.0021619773 -0.0001379323 0.0014700573 -0.0028071902 0.00020222981 0.0029431565 -0.0011988711 -0.003940329 0.0005374111 0.00030564828 0.0039370335 0.002247868 -0.0011080533 -0.0018406821 0.0038701696 0.0038297763 -0.00078410184 -0.0027822636 -0.0041841413 -0.0028410708 -0.001249779 -0.0014063978 -0.004955646 -0.00031823816 0.0005633031 0.0014358922 -0.0033446955 -0.004717363 -0.0018699042 -0.004084849 0.004385103 0.00088762573 0.0015199536 -0.0031877144 -0.00053583627 -0.0033363246 0.0036389234 0.00335632 0.0044567296 0.003416048 -0.0031650844 0.0047414717 0.0018883159 0.0020232755 -0.0018575236 0.0038183501 -0.0031289114 -0.0010847994 0.00486067 0.003271949 0.0035113655 0.0046495576 -0.004625666 -0.0045940746 -0.0011921198 -0.0019517264 0.0010358642 0.0024972754 -0.0047607133 0.0033088613 -0.000100830744 -0.0007615834 -0.00042920304 0.004006834 -0.0048189834 -0.0017752383 -0.0012185422
计算 -0.002285732 -0.0019491412 -0.0031724428 -0.0026274319 0.0039059187 0.0037495652 0.003765816 -0.004982026 0.00029869736 0.0021617573 -0.0006918857 -0.002665848 0.00021892271 0.0029417542 0.002743914 0.0028409963 0.004627697 0.002414777 0.00033537767 -0.004518294 -0.004690875 -0.0010234831 0.0007696343 -0.001556372 -0.0037238891 0.0013665879 -0.0007340458 0.00067331234 0.0023583525 0.00094377814 -0.0049747643 -0.0027627677 0.0045824363 -0.0010695967 0.0010539246 -0.004292288 0.003844377 0.003523745 0.0043638945 0.0009855346 0.001136672 0.0049265614 0.0018602296 9.5383475e-06 -0.0007575848 1.1882849e-05 -0.004112152 -0.0002499523 -0.0012330262 -0.0035901787 0.0040428774 -0.0041380324 -0.0011627468 -0.0036835955 -0.0006477932 -0.004021466 0.0010234147 0.0032169379 0.00401353 0.002987126 0.0035399299 -0.003889344 0.0008555146 0.0007212175 0.0043760827 -0.0045789694 -0.0020912685 -0.0042295493 -0.0017951078 -0.0002447912 0.0010666946 -0.00019467529 6.509047e-05 0.00043291965 0.0026596854 0.0034618096 -0.0046015284 -0.0045851544 -0.0047457027 1.8043735e-05 0.0041440986 0.0047984724 -0.0043770364 0.0038212058 -0.0039284606 -0.0028631706 0.0029187752 -0.000688886 -0.0018604243 -0.003654417 -0.0024683352 -0.0013327324 -0.0044545988 -0.0025392072 -5.131309e-05 -0.0016980837 0.001469917 -0.0045667836 0.0035465313 -0.0023383826
复杂性 0.0038358276 0.00042583386 0.0045463815 -0.004858745 -0.0028634355 -0.0012480769 -0.004307415 -0.0025579282 -0.001560379 0.002934529 0.0011025663 -0.0012822304 -0.0043000625 0.0031918294 0.0029527028 -0.0010401927 0.0032368368 0.004687232 -0.0044287345 0.004239216 -0.0019625458 0.004937666 -0.0045635123 -0.0038177683 -0.002775797 -0.002679245 -0.0038019954 -0.0041457703 0.004626038 0.001936985 0.0036735067 -0.0025301338 0.0020530731 0.00043019908 -0.0028784077 -0.004605647 -0.0004978982 0.0036076736 -0.0033974664 -0.000105050654 -0.002583072 0.0026829706 0.0029396028 -0.0004929969 0.0007938732 0.0029270588 0.0008527506 0.0008659589 0.0031983706 0.0011051064 0.0015129348 -0.004347575 0.003000346 -0.0021790136 -0.0041573877 0.004522577 -0.003568849 -0.00096696836 -0.0032138848 0.0024506862 -0.0003799398 0.004598773 0.00255054 0.0042631896 0.004629668 0.001510199 6.915645e-05 0.004014956 -0.004239306 0.0024086935 -7.454081e-05 0.0022662468 -0.0029231661 -0.0031370095 -0.003396294 -0.0032209752 -0.003129476 -0.002115459 0.0010606006 -0.0005193175 -0.00086465065 0.0048540034 -0.00037445067 -0.004712179 -0.0013753243 -0.00333861 -0.0040598116 0.0025180415 0.0039809383 0.0033474984 -0.0039936407 0.002621418 -0.0027269607 -0.0045745634 -0.00086124655 -0.00080658984 -0.004214248 0.0026477668 0.0010006869 -0.0038668513
多门 0.0034539194 -0.0045607258 -0.0044219466 -0.003787231 -0.0007288862 0.0036774515 0.0009414277 0.0010227908 -0.004902265 0.0023796086 0.0022523564 0.004037516 -0.0012341592 0.003537451 0.0005309878 0.0037154024 0.0018706787 0.0025027168 0.00085972407 -0.0039106226 0.0005409301 -0.00095306546 0.00018190008 0.003472546 0.0033251566 -0.0024088079 0.004213969 -0.0030497082 -0.0028850273 -0.0047647655 -0.0036554171 -0.0021516345 0.004349038 1.1156246e-06 -0.00062917726 0.0030414076 -0.0015301509 0.0036788667 -0.003826417 -0.0049731787 0.0012238731 -0.0008368406 -0.0020070595 0.00275402 0.0030937546 0.0039108624 -0.0020649503 0.0032749104 0.002519074 -0.0034735214 -0.0033552756 -0.0016776157 0.0031586683 -0.0033269222 -0.0009303719 0.0018860921 0.0045248508 0.0030147084 -0.0009694937 0.0036926721 -0.0002342217 0.0010094707 0.004983802 -0.002388357 -0.004146002 -0.0014269177 0.0034464013 0.003383647 0.002898403 -0.004462506 0.004877124 -0.000104159946 0.0046179625 0.0005503578 0.0016419219 -0.0005682879 0.0006908676 -0.00017377842 0.0020389296 -0.00040133644 0.0029733838 -0.002702862 -0.0008126995 -0.00087737216 -0.004836301 -0.00020145436 0.0014769058 -0.00018355099 0.0038353573 0.00082271855 0.003423756 0.0020284404 -0.0047534932 0.003619275 -0.0018563854 -0.0037870298 0.00066923106 0.0030314124 -0.004537622 -0.0039026823
学科 0.0040007755 0.002134601 0.00073082553 -0.002298162 0.0012898905 0.0033705197 -0.0049070786 -0.002390498 -0.0016129536 0.0032801307 -0.0023751445 -0.0026000168 -0.004369988 0.003343285 0.0033368454 0.0048495554 -0.0014271372 -0.00080990477 -0.0038369 0.002125213 -0.00407348 0.0040508593 0.0027315435 -0.0032905927 0.0049830815 0.0005574226 0.0020888527 -0.0006098904 0.0025551978 0.0015464548 -0.0046272874 0.003579203 -0.003789523 0.0019569795 0.0001371772 0.00093808747 -0.0030929116 0.0040372005 0.00046309165 -0.0049654976 -0.00048054167 -0.002004808 -0.0008018059 0.0036536462 -0.0037824975 0.0035590602 0.0045771603 -0.0009094347 -0.003922436 0.0007122174 -0.0010047576 -0.0015648366 0.004108064 0.002803249 -0.0019018304 0.0023150595 0.00440179 0.0048098313 -0.0011880741 -0.0031884443 0.0039344104 -0.0046888185 -0.0049769217 -0.0012913756 -0.004533172 -0.00462156 0.004296553 0.0037056166 -0.0049651726 -0.0029328119 -0.0016146132 0.00047301623 0.0015142312 -0.0021080833 -0.00031983427 0.0035505716 -0.0025911857 -0.00079219416 -0.0024263568 -0.0049271234 0.00018575603 -0.003004084 0.0044569573 -0.0030432872 0.002791582 -0.0018739926 0.0036066386 -0.00449911 0.0032487432 -0.00171183 -0.004139204 0.004169614 0.0017015212 0.0038072322 0.003890399 0.0015703745 0.0036757549 0.0031345363 0.0009936478 -0.00031293256
设计 -0.0010674301 0.004233988 0.004499092 -0.0025939513 -0.0017949087 -0.0044831396 0.0022658936 -5.9661892e-05 0.002493157 0.0017201804 -0.0022609571 0.0006577315 0.00492136 0.001936226 -0.0012016804 -0.003825774 -0.004898332 -0.0027891675 7.6746684e-05 -0.0005942249 0.003448597 0.0040833238 0.0027002394 -0.0012044857 0.004138366 0.0015957225 -0.0011672928 0.0007547106 -0.0039769174 0.0001841777 -0.0015105287 0.003037763 0.0047201556 -0.0015608133 0.004351902 -0.0037866079 0.00020978111 0.0010443608 -0.0027615305 -0.0018934598 -0.00036835278 -0.0035398956 0.0021113919 0.0041963775 -0.0034950562 0.0015237196 -0.000465588 -0.003154162 0.0021108144 -0.0038745166 0.0019362883 0.0035381964 0.0011043466 -0.0029699646 0.000108755165 -0.0005110953 0.0017444933 0.00040150178 -0.0033558449 -0.0024633277 0.0027220368 0.0020195304 -0.0021353073 0.0007588888 0.0029504248 -0.0008121004 -0.0028744938 0.004415311 0.0012125723 -0.004674944 -0.003254079 -0.0009593813 0.0039149676 0.00081215467 -0.004127632 0.004027096 0.0035856 0.0021902681 0.0014271613 -0.0044144397 -0.00019023869 -0.0043377 -0.0019515689 0.0035072796 0.0013810357 -0.0029168236 0.0026690667 0.0025788893 0.0043396745 -0.003870193 -0.0021161204 0.0031560003 -0.004287701 -0.0046871477 -0.0008242186 0.0046825157 0.003225703 -0.0027887567 0.0030475804 -0.001648835
计算机 0.00029742141 0.003411217 0.0046591535 0.00025907657 -0.004032777 0.003697056 0.0007164641 0.00038293516 -7.394334e-05 0.004064078 -0.0014927796 0.0035798987 -0.002709542 -0.00090758834 0.00042292516 -0.0028120985 -0.0022198413 0.0009677353 0.0025905815 -0.0049134903 8.512809e-06 0.00051088294 0.002256492 -0.0033995397 -0.0043800804 0.004706421 0.0017000946 -0.003375626 0.0017564709 0.0029472637 -0.0033625886 -0.0037200714 0.0015122449 -0.004766842 -0.00094134966 0.0012174953 0.0015603051 -0.0040399064 0.001362843 0.0028961035 -0.00022735748 -0.002721943 0.0002824682 0.0025517975 -0.0023254296 0.0037731405 0.0026595262 0.000384124 0.0011787738 0.002244103 -0.0047018393 0.0048957067 0.001944229 0.0011895692 0.002060989 0.0047732457 0.0023405647 -0.0046490217 0.00278342 0.00021204945 0.003859141 0.0049884403 -8.514563e-07 -0.0029827638 0.0011076938 0.0023258997 -0.0008353188 6.879851e-05 0.0020953973 -0.0036398775 0.0042818473 0.0005434283 -0.0018306707 -0.004947888 -0.00040754591 -0.00432668 0.0009677104 -0.004417477 0.00045198968 0.0022758218 0.0038477238 0.00082760124 0.002593605 0.0032544378 0.004844167 -0.0027646567 0.0016564113 0.002950757 0.00315254 -1.00632615e-05 -0.001690924 0.0025490364 0.0032406074 -0.0039729862 -0.0009534693 -0.0017892016 -0.0043226415 -0.0034513942 -0.004176012 -0.004440956
一类 0.004417222 -0.0021143386 -0.0023832968 -0.0045283767 0.00023505339 -0.0013081428 -0.00074227876 0.0036035967 0.0023973002 0.0028023385 -0.0029200686 0.003991863 0.00051905634 -0.0038665342 -0.0021424463 -0.003096628 -0.0032693103 0.0038100057 0.004909865 0.0047551813 0.00095225114 -0.0030996818 -0.0033648338 0.004024729 0.00014048418 -0.0018881221 0.003765955 -0.0022337597 0.0020157204 0.004671559 0.0037368585 -0.0014481444 -0.0049942746 -0.0026712287 0.002380195 -0.0019420667 0.0044379914 -0.0038942904 0.0044855783 -0.0034814032 0.004419965 -0.00037577207 0.002501423 0.0007470522 -0.0013306588 -0.004239015 0.00143198 -0.0019721212 -0.0037399423 -0.004206003 0.0038350117 0.00022462072 0.004555628 -0.0009393195 0.0019525449 0.0029466627 -0.0010611478 -0.0048960713 -0.0021206026 -0.003944969 0.0044349926 -0.0012637984 -0.004881936 -0.00025598344 -0.00052322226 0.003363141 -2.9572391e-05 -0.0004117355 -0.002611049 0.0019024591 0.00021188412 0.0020800822 -0.0044486104 0.0026542316 -0.0028257791 -0.004233345 0.0045001945 0.0036629685 0.0024492797 0.0020662763 -0.0027345158 -0.0024813786 0.003720774 -0.00032813576 -0.00053351594 0.0011330701 -0.0008793178 0.0016110358 -0.0036784115 0.0025929722 -0.004616111 -7.037787e-05 0.0006136807 -0.002887279 0.0009978228 -0.0042662662 -0.004150311 -0.003963095 -0.004798196 -0.0010418714
利用 -0.00017090279 -0.004411577 -0.003250681 -0.00087406667 0.00036535654 0.0022293378 0.00080633495 0.0030592277 -0.003637519 -0.002405554 0.0037262265 -0.0014653772 -0.002509417 -0.00039843947 -0.000542117 -0.004898917 -0.0033138273 0.0013403142 -0.004023291 0.0020650632 -0.004010295 0.0046683615 -0.00038251022 -0.0033390205 0.00013759354 -0.0032089641 -0.0049525644 0.0003670315 -0.003963701 0.0012508676 0.004770639 0.0008437456 -0.0030438723 -0.0049743983 -1.21418925e-05 -0.00038264817 -0.0025381576 -0.002237293 -0.00059673324 0.00321239 0.0048697656 0.0005221948 -0.0031487034 0.003963161 -0.0027488004 -0.0025841095 -0.0015359855 0.0025762287 -0.0027367864 0.0012430073 0.0019793396 -0.00028014797 0.0034747433 0.0020770486 -0.0014583297 -0.0015750111 0.0011606019 -0.0033221396 -0.002015483 0.0040580914 0.0018912543 0.0012000956 0.003988573 0.002668819 -0.004091778 -0.002331234 -0.0011116305 -0.00030154135 -0.0019887304 0.004209709 0.0025790252 -0.0003283771 0.0036571645 0.00017210447 -0.0009747514 0.0048434213 -0.0029475966 0.004349508 0.004872055 -0.0020016967 -0.0017077087 -0.004765991 -0.00020861588 0.00042995505 -0.0029360785 0.00084160385 0.004381152 0.0011485014 0.00070983276 0.0031191774 -0.0029683637 0.0014800613 -0.002763961 -0.0013443863 0.00072692696 -0.0002858188 -0.0042055952 -0.004828102 -0.0049529495 -0.0027606883
未知 0.0022493212 0.0040702033 -2.0500042e-05 0.0040246802 -0.004871937 -0.0025280323 0.003837276 0.0008883943 0.0030030443 0.0020366658 0.0016439675 0.0031076402 -0.0013238433 7.2395895e-05 -0.0010403197 0.001573812 -0.004940156 -0.0039662137 -0.0028947496 -0.0045392523 -0.0015350214 0.0033807908 -0.0011294233 0.0014460335 -0.0025456974 -0.0017711322 -0.0015176063 0.00015916166 -0.004360094 -0.002952875 0.0018802856 -0.0033405635 -0.00023384817 0.0010538443 -0.0003191808 -0.002341591 0.004743342 0.004077286 -0.0039394586 -0.0033083546 0.0020200806 0.0044064433 0.0045114662 -0.0014069312 0.0045889565 -0.003390624 0.0010654377 -0.002681318 -0.0039092633 0.0006677248 -0.0043618525 -0.0029558204 0.0027605195 0.0044666776 0.004080159 -0.00047547938 -0.0020543884 0.0023558224 -0.001560369 0.0024736004 0.0048935083 -0.00033051637 0.004571277 0.0032528702 -0.0045622806 0.0009248107 0.0010946566 -0.0038279425 0.0017339893 0.0038873926 0.0038143622 0.00066925504 -0.0036985297 -0.0027560308 0.0043739225 0.0022743412 -0.004793557 0.0015901179 -0.0031901528 -0.0013764509 0.00083160185 -0.001798925 0.0007839882 -0.00081139134 0.0035673375 -0.0024264448 0.000710278 -0.003985373 -0.0016574811 0.00056691316 -0.0015868148 0.0047115083 -0.003262662 -0.0028775695 -0.0049127215 -0.0021422987 -0.0017450084 -0.0018515193 0.0024024625 -0.0035980984
预测 -0.0012206102 0.0037994173 -0.0022727905 -0.0022598775 0.0033496025 -0.0014354936 0.00089734915 0.0006395347 0.0002591151 0.00084499014 -0.0042709894 -0.0028312088 0.0025536043 -0.0005305837 0.0011776894 -0.0029943704 -0.0046074498 0.00050398335 0.002149474 -0.0041852198 -0.0037514751 0.0033420664 -0.0014343606 0.003991337 -0.0007865982 0.0018762705 0.0041149706 0.000476442 -0.0033884835 0.004619144 -0.0030628964 0.00011863603 -0.0030535217 -0.004625893 -0.0005927868 0.003523027 0.0032327252 -0.0029078322 -0.0049141757 -0.0015848544 0.00058187067 0.0033009634 0.0037430818 -0.00485991 0.0040470576 0.001554105 0.0018483431 0.0006542009 -0.0034970767 0.004680642 -0.0049913665 0.0029991192 -0.0017475549 0.0044883178 0.0027892948 1.08080485e-05 -0.0044795396 0.0018263222 0.00056925364 0.0048308806 -0.0008368474 -0.0047666766 -0.00044654083 -0.0047739167 -0.0045879916 -0.0033421 4.6112655e-05 -0.004827012 -0.0034699657 0.00072223 -0.0021172774 0.0030337959 0.00327927 0.0035252792 0.0037161303 0.0034920622 -0.0021240734 0.003859674 -0.004356363 -0.004947202 -0.0037460844 -0.003614271 -0.001701565 0.00048947317 0.0047918325 0.0021746173 -0.003001366 0.0043355227 -0.003911768 -0.0049320892 0.0025913178 0.0007503974 -0.0036082831 0.0014880423 0.0020891652 -0.0042619803 0.0011898497 0.0029370207 0.002114991 0.004444071
英语 0.0015038662 0.0007563452 0.00411813 0.001296797 -0.0007203022 0.00032730208 -8.12179e-05 -0.0043459195 0.0006864035 0.0002240061 0.0021278101 -0.0018482796 -0.00036050042 -0.0021069024 -0.004211678 -0.0034751168 -0.004145033 -0.00031741988 0.0034434155 0.0033016303 5.6242505e-05 0.0021902716 0.0031659754 -0.0033050189 -0.002255474 0.0020938711 0.0010945747 0.00023087728 -0.00095828855 0.0034739594 0.0010404147 0.000567197 0.0021433278 -0.00035533193 0.0031943594 -0.0013316047 -0.002917449 0.0034653114 -0.004133791 -0.004891384 -0.0009194235 -0.00462732 0.0037952727 9.623352e-05 0.0049779816 -0.004020705 -0.0037585895 -0.0018785216 0.00034578715 0.0023940038 -0.0038502396 0.0035802897 -0.0044719307 0.000723775 0.0008992184 -0.003176211 0.00026638416 -0.00021383588 0.0014705998 -0.003461111 0.0010731849 -0.00047988165 -0.0041384394 0.0047818115 0.0003628433 -0.00094388943 0.0046805805 -0.0048968405 0.0033908542 0.0013637876 0.0020854494 -0.00090963405 -0.002538379 -0.00050673465 0.002119442 0.0032793216 -0.0022592281 -0.004862971 -0.0037398182 -0.00022210897 -0.0002876667 0.0037866002 0.0015504652 -0.0017704086 -0.004025097 0.0015355139 0.0012499038 -0.0013534254 -0.0038422013 0.0027313982 -0.0047903415 -0.00064295763 0.0005632386 -0.0023104018 0.0044219703 -0.002358279 -0.0020386677 0.0033289567 -0.0034972643 0.0048825652
deep 0.0024620648 0.0039024202 -0.0013297261 -0.004646199 -0.0031227712 0.0009192857 -0.002095355 0.0025727134 0.0017706762 -0.0036517067 0.00014002335 -0.0035536303 0.004458103 0.004316623 0.0037390634 -0.0033170672 0.00086783344 0.004123619 0.00045214506 0.0025134357 -0.0029470113 -0.0023726933 0.0010343733 -0.0015847852 0.0049342765 0.0013955157 0.004433927 -0.0041259667 0.0034511518 -4.3074513e-05 -1.710293e-05 0.0034342327 -0.0020467604 0.0010909461 -0.0020115015 0.00036430394 -0.0021644165 -0.0024377552 0.0039457874 -0.003271332 0.0037965057 0.00097155914 0.004046805 0.0019172527 -0.0023578827 0.0043529207 -0.0022103614 -0.0031288322 -0.002427906 0.0036818571 0.003297745 0.0008134712 0.0026884351 -0.0012475891 0.0013519845 -0.0014066463 -0.002037705 -0.00023126551 0.0029910917 0.004967067 -0.004099064 2.7763881e-05 -0.0014075786 -0.0044660787 -0.002109382 -0.0015170464 -0.000996575 -0.0028079252 -0.004666941 0.002877422 0.00014559887 0.0015449267 0.00032027188 -0.0045011635 -0.0024022954 0.0036090142 -0.004494664 0.0025827265 -0.0010362705 -0.0013342092 -0.0029641825 0.0044256016 -0.00047066342 0.0016728143 9.0993984e-05 2.3130067e-06 -0.002026827 0.0019952226 0.0008448686 0.00074195815 -0.0037925467 -0.0027376087 -0.0022491857 0.003688359 -0.0011672922 0.002668994 0.0006597489 -0.0014276904 0.0024882164 -0.0014211028
learning 0.004256104 0.002962597 0.00063329487 0.0035737646 0.0006364119 0.0023691976 -0.004495395 -0.0018961455 0.0030907048 -0.004911949 -0.0016593697 0.0044185612 0.002882719 0.0024398302 -0.0040905965 -0.004703954 0.0039284504 5.5816607e-05 -0.003714612 0.0014664833 -0.0022304184 0.004461032 3.709144e-05 0.0015924077 0.00032946555 0.0006770609 0.002864204 -0.00099653 -0.004811867 0.0015364302 0.0037525136 -3.7339236e-05 -7.117158e-06 0.0034441468 0.00017379608 -0.0027513746 -0.0028978672 -0.0049708714 0.0016603271 0.00067057076 -0.0002774845 -0.004676534 -0.003059026 -0.0046633277 0.0002997759 0.00075858046 0.0018776297 0.00069264934 -0.0015982883 -0.0031089701 0.0013719382 -0.0020550217 -0.00046899263 0.0029746052 0.002516295 -0.0032778797 -0.0033110937 -0.003637962 -0.0036190154 -0.003487844 -0.0039747804 0.0028125716 -0.0047108224 0.0013935278 0.00017475456 -0.00026028417 0.0046098484 -0.00047046394 0.002356751 -0.0002814119 1.7634526e-05 0.0037836449 -0.00057729176 -0.0036393108 0.0038014434 -0.0032564115 0.003549093 -0.00084527617 0.0012518669 0.004264424 0.0035428482 -0.00082773966 0.0013633105 0.00024784374 0.0048934114 -8.871441e-05 -0.0015064626 0.0029373134 -0.0024566532 0.0008752666 0.003462803 -0.003516344 0.0017349131 0.004172591 -0.0044791503 -0.0024247975 -0.0012652484 -0.0030052029 0.003747896 0.0046597742
人工神经网络 -0.0045181303 0.0004346948 0.002323085 0.000104701525 -0.0030847483 0.0009967197 -3.3519114e-05 -0.0037093977 -0.0017720417 0.0031501695 0.0022898798 -0.0040421 -0.00083847286 0.0029511037 0.0024526056 -0.0038291756 -0.0011126919 -0.0018888542 0.003014917 0.0009041539 -0.0023133627 -0.0008917725 -0.00070985255 -0.00058682816 0.001665332 -0.00015960123 0.0028630327 -0.0040566055 0.002726049 -0.0017443344 0.0025236243 -0.002609421 0.0032578933 -0.004539542 0.0036671313 0.0007363218 0.0004909981 -0.0009335496 -0.001384277 -0.0038474 -0.0018607652 0.0041121193 -0.0018892207 0.002966053 0.0033712315 0.0023436516 -0.0029950608 -0.0031382705 -0.0046751522 -0.0028922756 -0.0019369328 -0.0044329446 -0.0014437014 -0.0014110924 -0.0032868478 -0.0037997814 0.0026360436 0.004052471 0.004292454 -0.0032311073 -0.004503597 -0.0009960207 -0.004494925 0.0006141705 -0.004063128 0.0024941473 -0.001745515 0.00022083467 0.0031439376 -0.0027830836 0.0025577112 0.0015229816 -0.0024033748 0.0016522881 0.002936989 -0.0015690002 -0.00097014505 -0.004119284 0.004639802 0.0030912007 -0.0003245962 -0.0033288791 -0.0031001319 0.004167621 0.0026153824 0.0016937011 -0.00028116736 0.002762621 -0.00071174616 0.0007876383 -0.004429033 0.0047672736 0.0012556633 0.002007119 -0.0030501687 0.004284868 -0.0012399999 0.00295593 0.0015743718 0.0013307284
架构 0.0030400883 -0.004542018 0.004829181 -0.002091274 -0.004949626 0.004113879 0.0030548165 -0.0026320338 -0.0032968791 0.003093783 0.0028933752 -0.004730177 0.004354971 -0.0046885884 0.002667632 0.0010823444 -0.0023759035 0.004658166 0.0036059972 -0.0040416936 -0.0015927334 -0.0036928644 0.004851045 0.0011959885 0.002998505 0.0017340921 0.0048002955 -0.000118598975 0.0029987744 0.00043569057 -9.251118e-05 0.0018927546 0.0043986533 -0.002318835 0.0029430375 0.00039188098 0.0044027288 -0.00027528152 -0.0004313522 0.0033404003 -0.0030142684 0.004308138 0.003930813 0.0043335897 0.00012109228 -0.003961955 0.0033810358 0.0033048436 3.4821656e-05 -0.0010047299 -0.0013982123 0.0045282925 0.002128364 0.0035360102 -0.0009509314 -0.00335374 0.0012739275 -0.0014055563 0.004053613 -0.0040312083 0.0049577584 -0.0014877944 0.0004918459 -0.0018181074 -0.0017810547 0.0007522977 0.0044860276 -0.0040628323 0.0003622203 -0.00025238676 0.0033441375 -0.0010687029 -0.0006331348 -0.001112768 -0.003585524 0.0047623357 -0.0027601183 0.004214806 -0.0046888823 -0.00033360306 -0.0043455632 5.8232556e-05 0.0044582062 0.004659852 -0.0015579744 0.0041683726 0.0040233736 4.281405e-05 0.0027712379 0.0046080365 -0.00029584157 -0.0040895357 0.002876137 0.003260189 -0.0044319946 -0.0011195365 -0.0028358896 0.0010252496 0.0034074425 0.0005923088
观测 0.0010468252 -0.0027004415 0.0016854061 0.003667142 -0.0027786528 4.781295e-05 -0.0045253895 -0.0012151197 -0.0013037038 0.003058149 -0.0031044835 -0.0006039352 0.0026823338 0.0035325985 0.0012896166 0.00034587373 -0.002207458 -0.0018404236 -0.0007598524 0.0026199087 -0.002445842 -0.0023884436 0.002481448 -0.0031810894 0.004545726 0.0033861245 -0.0004621682 0.004840132 -0.0028384605 0.0032703704 -0.0027182668 -0.0033902356 7.045696e-05 -0.0038775178 0.0023641589 -6.7641977e-06 0.0029489668 0.0030217646 -8.520146e-05 0.0026663914 0.002630072 0.0016309272 -0.0027279384 -0.0018064065 -0.0015357418 0.00070539326 0.0025764068 0.0015405505 0.0044760993 0.0011027048 -0.0014978233 -0.0036223952 -0.0029398457 0.0026071758 -0.0041541 0.0024833395 0.0046974258 0.00074040383 -0.0017379993 0.003435258 0.004143927 0.0034741282 -0.001272964 -0.0019349594 0.0046382197 -0.0041547534 3.7814774e-05 -0.004074215 0.004369399 0.003060255 -0.0007212974 -0.0030043921 -0.001014011 0.0047537964 -0.0040463586 -0.004606337 -3.5350637e-05 0.0006488962 -0.00028317372 -0.0047784834 -0.0012473658 -0.0036315303 0.0006051538 0.0012132494 -0.00080199254 0.0047251144 0.0020366034 -0.0011192153 0.00021800786 0.00404275 0.004466915 0.00023578474 -0.0023485078 0.004441665 -0.00037089366 0.0031537858 -0.0026604661 0.0019447667 -0.0013599241 -0.0024739408
一幅 -0.002552486 0.0012044018 0.0007486062 0.0034289768 0.0006849244 0.0027176447 4.657483e-05 0.0036247107 -0.0035543516 0.001770127 -1.227692e-05 0.0028542306 -0.0049387 0.00023202194 0.0036410044 0.004480776 0.0017582921 -0.00012554368 0.0033808202 -0.0032090254 -0.0019925416 -0.0043955906 -0.00048383008 -0.0030858605 -0.0002532118 -0.0026734215 0.00050684786 0.0007983542 -0.002597625 -0.0016671205 -0.0038595323 -5.5361532e-05 -0.002285959 -0.002135632 -0.0016547838 -0.0010624316 -0.0047969967 0.004984065 -0.004730272 -0.00028006328 0.0017363145 -0.0042736805 -0.0026281755 -0.0028584052 0.0019239819 0.00215651 0.0010195273 0.0013449425 -0.0040408135 0.003170028 0.0033846975 0.0047150436 -0.0020954337 -0.0011274711 -0.00013915825 -0.0025339907 0.0031875682 -0.0040848427 -0.0023074998 0.0045460113 0.00040931956 0.004044765 -0.003942304 0.003955591 0.0004642514 -0.0017392074 -0.0007832254 0.0018373546 -0.0021889803 0.0027095296 -0.0017118548 0.0006373397 -0.0010963344 0.004524918 0.004412369 -0.0031500922 -0.0027455883 -0.0020500384 0.0040991013 0.0039742687 0.004071105 0.0014927059 -0.00059375993 -0.0032298018 0.0010915454 -0.0017673338 -0.0021633622 0.002447215 -0.0027272557 -0.0024417057 0.00056727964 0.0017320766 0.001973289 0.00064351107 0.0011529078 -0.00032978875 0.0010020719 -0.0037394213 0.0047949017 0.0043663466
图像 -0.0018187694 0.00074852194 -0.002066204 -0.0010657858 -0.0033140127 0.004767448 -0.0012740609 -0.0028476461 -0.0030896617 -0.0047264663 0.0005687028 -0.0035130267 0.002625696 -0.00082662527 0.004553623 0.0020097168 -0.0047201766 0.0042722314 0.002555095 0.0010187301 0.0032398782 0.0016661835 -0.003437688 0.004729352 -0.0023983151 -0.00026318 0.004428155 0.0004534604 -0.00046105398 -0.003235234 -0.004510686 0.0038931451 -0.00032329254 0.0040336326 -0.0016843979 -0.0020731685 0.0037182118 -0.0018926859 -0.001363485 0.0015459916 -0.003430757 0.0022247199 -0.0006529325 0.0039361487 -0.0027048064 -0.004283871 -0.003843522 0.003305873 -0.0030040364 0.0011984115 0.0020471837 -0.002712735 -0.0024190934 0.004515384 -0.0005530554 0.0038095962 0.0043981257 -0.002803052 -0.001726038 -0.0046209516 -0.0043375036 -0.000783122 0.00027356597 0.0036846932 0.0019776192 -0.0048814705 -0.0009897057 -0.0016741639 0.0021670358 0.0040678238 0.0035796245 0.0004977993 0.002141182 -0.00012484482 -0.0022057646 0.0003843734 -0.0023322485 0.00038053314 0.0044444823 -0.0013085963 -0.0015684653 -0.0044941762 0.0033471482 -0.00064758514 0.0015923548 0.0034360033 -0.0030699617 -0.0039385306 0.0030484763 -0.0011958927 -0.0024992893 -0.004927211 -0.0017745899 0.0038261097 0.0020088193 0.003227824 -0.0033327937 0.002893205 0.0001789171 -0.0034981524
多种 -0.00048945646 -0.0039920695 -0.0028966432 -0.0027011184 -0.00025704983 0.0014122354 0.0006775988 0.003193463 0.003437858 0.0026195454 -0.0011254397 -0.00044739744 0.0022422888 -0.0045443266 0.000121824574 -0.00477328 0.003174794 -0.00088844256 -0.00012918394 0.0040401984 -0.0009616604 0.000584854 0.0018951937 -0.0032035073 0.0034597903 0.0013529905 0.0035103764 0.0038633642 -0.004670714 0.004670493 0.003837886 0.0028386752 -0.0026600887 0.0035871868 -0.0032044423 -0.0016452707 0.00028703504 0.004878349 -0.0023202603 0.0024783378 -0.004705783 4.880546e-05 -0.003374129 -0.0049401913 -0.00068488164 0.0041142977 -0.0019077212 0.0036444257 -0.0005053603 0.0029018396 -0.0037770274 -0.0016490807 0.0033192919 0.0045142756 0.0040068785 -0.004971478 0.0017033073 -0.0017843232 0.00012478187 -0.002805827 0.0008932796 0.0027406507 0.0033165817 0.0013802063 -0.0007977587 -0.0027581155 0.0038572038 -0.0030955004 0.0037179308 -0.0027553316 0.0008332756 -0.0046259025 -0.0021337739 -0.00036493363 0.004918742 -0.0007244291 -0.0012295799 -0.0045770304 -0.001881801 -0.0042091375 -0.0013431651 -0.0042962735 0.0016769207 -0.0044852775 0.0019271466 0.00012568792 -0.003056014 -0.0016442569 0.0016681536 0.002106025 0.0015203613 -0.0022632943 -0.0037341723 -0.00050930533 0.001980771 -0.00068545365 0.00013555624 0.0006180404 -0.0020983769 0.0048435745
方式 -0.0036591708 -0.0011457239 0.004000017 -0.0006260897 0.00074983103 0.00219715 -8.8413726e-05 -0.0037210975 -0.00415325 0.0033599928 0.0043418687 -0.003927486 -0.0033943465 0.00061602757 0.00086550775 -0.0042008297 -8.948879e-07 -0.0046956656 -0.0005946802 -0.0010295293 -0.0041075284 -0.0048174434 0.0038150512 -0.0030298757 0.0045878217 -0.0026972722 0.0048853867 -0.00042413038 -0.0011186742 -0.0024741502 -0.001964823 -0.002113808 -0.004176174 -0.0039952467 0.000113990995 -0.0008747604 0.0028638681 -0.0044416017 -0.0005266957 0.00034162344 -0.0032049713 0.0029949823 -0.0018169938 0.0021296276 0.004233058 0.002927845 -0.004805085 -0.0012164753 0.0020488752 0.0027410402 -0.00027066228 -0.0010818563 -0.003948934 0.00044066945 0.0009456748 0.0038510575 0.0007195244 -0.0032060707 -0.0031847672 -0.0035354325 -0.0008916755 0.0038392555 -0.004648617 -0.004398601 -0.0010565465 0.0022630082 0.002160265 -0.003644308 -0.0028692468 -0.0017900885 -0.0043629524 -0.0019535918 0.00032665973 0.0040898877 0.004425283 -7.228013e-05 -0.0012893723 0.004931469 -0.0044444106 0.002311531 -0.004431967 -0.0014100556 0.004018984 -0.0031436193 0.00053183094 -0.0030563555 0.0047756205 -0.0020496089 -0.0026942159 -0.00046106253 -0.004079438 0.0029996475 0.0030063377 -0.0042780703 -0.00269697 0.0031849414 -0.0011126706 -0.002621077 -0.0040362105 -0.0039902483
像素 -0.0005206732 7.105109e-05 0.003200589 -0.0005052508 -0.0027153322 0.00027415063 0.0045852014 0.0006874525 -0.0030329553 -0.0033567054 -0.00014047633 -0.0006085222 0.0012119422 0.004260681 0.0029755046 -0.004322148 -0.00045306043 0.003257192 0.0001334172 0.002750071 -0.0026677412 -5.8983896e-05 -0.0047870474 -0.0010574795 -0.0020196592 -0.0044067735 -0.0025063567 0.0014824667 -0.0032428063 0.004543808 0.00015213618 -0.0012511598 -0.0036056335 0.0002811618 0.0024720759 0.003098965 9.079113e-05 -0.0038282801 -0.0001525631 0.0038635507 0.004335897 0.0035384796 0.0033691602 -0.002704804 -0.0039598644 -0.0035695126 0.0025110743 -0.0015852209 0.004705594 0.00041518194 0.0035081988 -0.00034095132 0.0021223626 -0.0037392022 -0.0014309837 -0.0014276647 -0.0018295398 -0.0013548908 -0.0008567737 -0.0028324763 -0.004348506 -0.0016664208 0.0023502167 -0.0033873564 0.0027786605 0.0019405333 -0.00014444979 -0.004377853 0.0015961163 -0.0043320484 0.0026991135 0.0049826405 -0.00056297606 0.0011828427 0.0044495095 0.0014494142 -0.0037750711 0.000954697 -0.0010457233 0.0038470773 -0.0033367474 -0.003355918 0.0015665417 0.0009350151 -0.0030332634 0.0011900582 -0.0038378877 -0.00061838725 0.0012108008 -0.0017852584 4.5873454e-05 0.001728411 -0.0043061245 -0.0024094593 -0.0016278015 -0.004321515 0.00391731 0.0031067645 -0.002886423 0.0014505993
强度 0.0035758987 0.0029660729 0.0012249411 0.0048617134 -0.00046384984 0.004639291 0.002417724 0.0008898035 -0.001183641 -0.0010939171 -0.0043735104 0.004835266 -0.0011919542 0.0015146302 0.0023609216 0.0030899912 0.0010321714 -0.0010454591 0.003911295 0.003998226 0.0017974734 -0.001527248 0.0028846334 -0.0029185913 0.0005655543 0.00314489 -0.0019161126 -0.0042086286 -0.0018733257 0.0013529988 0.0030472565 -0.001227121 0.00080440065 0.0035414326 0.0015926773 0.0028845228 -0.004187316 0.0019433687 0.00020873512 0.0047020065 -0.0027793495 2.0409481e-05 -0.0008709014 -0.0033069868 0.001055321 0.0012065 -0.0019152208 -0.003548853 -0.0010277765 -0.0040296083 0.0015066158 0.0032275063 -0.0040609995 0.0008809586 0.0033676133 0.00096172054 -0.0016151518 -0.0036105749 0.0011464864 0.002304589 0.0037997535 -0.0032805607 0.0042511914 -0.0046175807 0.0019383852 -0.0017462419 0.004403775 -0.0017492999 0.004121245 -0.004188658 -0.0029847128 0.0029293809 -0.0019513776 -0.0021835759 -0.0014279207 -0.0045816326 0.0032944237 -0.004457402 -0.0018163926 -0.0039627575 0.0032124086 0.003297838 0.0044666305 0.004195822 -0.003559557 0.001368645 -0.0036093222 0.0035422454 -0.0027094528 -0.00068133295 0.00044350929 -0.0017679244 -0.0004374728 0.0023146756 -0.0017894945 0.0023811662 0.0038810628 0.003946444 0.003816863 -0.002088165
向量 0.0044933264 0.004020023 -0.0014078319 -0.0005891571 0.0010220918 -0.0014280773 0.0011730512 -0.0021885324 -0.0047152354 0.0026910936 -0.0046720416 -0.0020464943 -0.0016936088 0.0018006907 0.0010321051 -0.004136232 0.0034969472 0.001144998 0.0017451855 -0.0025920724 -0.0027188899 0.0005542662 -0.0022240644 -0.0040772627 0.0031041834 0.004940269 -0.00048822362 0.0038994276 0.0026220516 -0.0009450805 -0.0005269111 -0.0032274222 -0.0047514187 -0.0046165986 -0.0016788282 -0.001796998 6.580029e-06 0.00073023303 0.00067080266 -0.0010774449 -0.004216571 -0.0018723112 -0.002408736 0.00010698786 0.0011487944 -0.0038477625 -0.0030981353 -0.0045619598 0.004142447 -0.002411348 0.001982603 -0.00044687264 0.002191606 -0.0045175073 -0.0036352745 0.004348445 -0.0023097184 -0.00044100164 0.0015989227 0.0029668044 -0.0007969129 -0.0031759082 -0.0040711625 -0.0001844267 -0.0014101174 -0.004785037 0.0021331517 -0.0043261787 0.0030594957 -0.00082100066 -0.004860704 0.004958983 0.0049074595 -0.005008703 0.0045169047 0.0029740778 -0.003878929 -0.0017901692 0.0028588157 -0.0044664773 0.0031032232 -0.0030066783 -0.003139876 0.00089969666 -0.00025904216 -0.0021331098 -0.0009547594 0.0020929882 -0.00015812235 0.0028559407 -0.0046623237 0.0014692368 -0.0042381026 -0.0047673723 0.0026016266 0.0038657736 -0.0038362094 -0.004545607 -0.0028452426 -0.0016988887
抽象地 -0.002063914 -0.0012352716 0.0012941073 -0.00093733513 -0.0019549 0.0035218184 0.003666881 -0.0018046905 -0.00051500555 -0.0037168716 -0.0004152071 0.0006439343 -0.0045250067 0.0022898288 -0.0019998 0.0014325274 0.0031459208 0.004584328 0.0008251443 0.0024118307 -0.0045450176 -0.0017894085 -0.004600141 -0.0037428502 0.0010454234 -0.0021174087 0.0045577143 -0.0033387558 0.004784524 0.00184695 0.00011585859 0.0047627524 -0.0030388974 0.0048925574 0.0044789906 -0.0016986497 0.0031723774 -0.00024308849 0.00044867178 -0.000140808 -0.0033128113 -0.004142988 -0.0013295922 -0.004919807 -0.0043887654 -0.0033570663 0.004413696 0.0017642018 0.00021843404 -0.003243425 0.0028525584 0.0013139516 0.0039326614 -0.0014457736 -0.0007586544 -0.0017408468 0.0028127814 6.245038e-05 0.0015793327 0.0033981877 -0.0035862683 0.0027704856 0.0013502175 -0.004312294 0.0013808333 0.0028314204 -0.0017284146 -0.002136695 0.00075016805 -0.0028983084 7.693709e-05 -0.003845998 -0.00268685 -0.0015450622 -0.001447669 -0.0017736478 0.0018391239 0.003191132 0.0049700434 0.0019896799 -0.002383132 0.0030695018 -0.00054114946 -0.003374292 0.003356308 0.0015473064 -0.0038358814 -0.0011385472 -0.0039850366 -0.0012239869 0.0033910999 -0.0026400264 0.0036740408 0.0024316185 -0.000114907445 0.0019405365 -0.002534526 0.0012713188 -3.0304182e-05 -0.0041855057
成 -0.004954488 -0.0032498636 -0.0016564695 0.0030716318 0.0008086917 -0.00069677713 -0.0015975535 -0.0049020266 -0.002238702 -0.0020299938 0.002972018 -0.0023836459 -0.0011076794 -0.004850708 -0.0043969275 0.001936035 -0.0029832595 0.000564985 0.0013852417 0.00065101316 -0.0014507436 -0.0005921317 0.0027200337 -0.001352745 -0.0043996773 0.0015492659 -0.0032592784 0.002931933 -0.0018054369 0.0008399923 0.004722427 0.0009837559 0.0010309961 -0.0016405444 0.0028577896 -0.0013820698 0.0021123334 -0.00079037336 0.000166901 -0.0038821131 0.003447477 -0.0029465193 0.0025293778 -0.0010568475 -0.0036765186 -0.0005656283 0.0038710302 0.0043362407 0.00487164 -0.003639811 0.0009794575 -0.0018825355 0.0020949892 -0.0017299055 -0.0017898808 0.0019975286 0.0020208515 0.00032728724 -0.0005193853 0.004833278 0.0016703468 -0.0047981814 -0.0042163073 -0.0004976178 -0.004385994 0.0003384651 -0.0027876582 -0.004649064 -0.0013888932 0.004736568 0.0033836977 0.004819425 0.003208205 0.001546484 -0.00014002222 -0.0021612388 -0.00021670488 -0.002424212 0.0028585154 -0.00073323236 -0.0003855579 -0.0030385233 -0.004460042 -0.0014303625 -0.0043262863 0.0030638326 -0.0049852785 -0.00082776585 9.31287e-05 0.0040809084 -0.0037237129 0.00051203475 -0.002963829 -0.0030617327 -0.00096039334 0.0022160292 -0.0012516566 -0.0032058049 0.0015777166 -0.003602894
